#ifndef MLP_WEIGHTS_H
#define MLP_WEIGHTS_H

#define INPUT_SIZE 128
#define HIDDEN_SIZE 64
#define OUTPUT_SIZE 10

float layer1_weights[64][128] = {
    {-0.224274, -0.132797, 0.065096, -0.132941, 0.066822, 0.092149, -0.006182, 0.034110, 0.004766, 0.084833, 0.119292, -0.020856, -0.107339, 0.046102, -0.132349, 0.026273, 0.172904, 0.128568, -0.039901, 0.082876, 0.068349, -0.015962, 0.100473, 0.189315, 0.037682, -0.150150, 0.011683, -0.035711, -0.076596, 0.076344, -0.096332, 0.187426, 0.106451, -0.070799, -0.021725, 0.098907, -0.138786, -0.019075, 0.115375, 0.145075, -0.049306, -0.064542, -0.023380, 0.133672, 0.097744, 0.079383, -0.240489, -0.107422, -0.183449, -0.051910, 0.016381, -0.051840, -0.031421, 0.267135, -0.136647, -0.080018, 0.093738, 0.079927, 0.055118, 0.128612, -0.210100, -0.072972, -0.014485, -0.135201, 0.084363, 0.146116, -0.124350, 0.200537, 0.137711, 0.088913, 0.080397, -0.081815, -0.075113, -0.016153, 0.157688, -0.120774, 0.013741, -0.029378, 0.065443, -0.018580, -0.201080, 0.001935, -0.033594, 0.057556, 0.052231, -0.209021, -0.089032, 0.184937, -0.030088, -0.159174, 0.042198, 0.062527, 0.012880, 0.048039, 0.026184, -0.007442, -0.078896, -0.074691, 0.074862, 0.005097, -0.058867, -0.077176, -0.144409, -0.247543, 0.123387, 0.130829, 0.034460, 0.257139, -0.008047, 0.101300, -0.020816, 0.030431, 0.102051, 0.138700, 0.173020, -0.054118, -0.023754, -0.095559, 0.118114, 0.068026, -0.035533, -0.001709, 0.039509, -0.113730, 0.164702, 0.127054, -0.169587, 0.089436},
    {-0.213480, 0.133656, 0.105448, -0.065118, 0.045050, 0.024401, 0.063284, -0.089742, 0.017161, -0.084073, -0.013520, 0.184568, 0.128720, -0.167786, -0.108269, -0.149929, 0.112457, -0.065329, -0.096185, -0.028018, -0.114992, 0.040915, 0.062813, -0.099209, 0.241076, 0.030815, -0.235861, 0.019908, -0.024998, -0.179340, 0.124151, -0.224661, -0.011267, 0.056054, -0.132473, -0.014971, 0.207189, 0.107203, 0.026739, 0.009028, -0.190526, -0.106295, -0.110044, 0.055459, -0.003790, 0.022534, 0.282587, -0.119627, -0.013154, -0.087091, -0.024211, 0.059777, 0.071326, -0.145856, -0.128590, -0.087095, 0.055357, 0.099940, -0.304024, 0.098597, 0.029688, 0.002421, 0.106099, 0.028280, 0.089450, 0.056384, -0.126220, -0.030982, 0.061315, -0.044244, 0.007615, 0.107399, 0.046310, 0.054757, -0.023616, -0.017450, 0.020023, -0.129366, -0.035982, -0.158181, -0.006626, -0.008834, -0.106332, 0.100619, -0.076257, 0.115548, -0.024840, -0.033586, 0.266433, 0.028663, -0.183253, 0.158906, 0.092249, 0.108059, -0.097651, 0.184972, 0.065815, -0.174354, 0.010144, -0.104886, 0.024345, -0.054853, -0.070704, 0.122017, -0.034936, 0.005901, -0.159807, -0.012940, -0.088728, -0.060040, -0.086462, 0.057084, -0.005271, 0.130805, -0.046916, 0.184270, 0.042194, 0.051027, -0.037720, 0.034571, 0.128122, 0.029765, 0.100127, -0.160213, 0.021029, -0.117510, -0.053517, -0.005193},
    {0.249744, -0.012491, 0.008961, -0.012161, 0.054621, 0.171407, -0.103652, 0.207394, -0.064270, -0.012219, 0.022438, -0.094583, 0.066470, 0.063550, -0.056835, 0.047274, -0.018738, -0.072587, -0.143784, 0.081771, 0.262675, -0.096121, -0.158774, -0.059020, 0.042327, -0.301025, 0.011655, 0.076892, -0.121558, -0.045286, 0.210322, -0.131581, -0.179987, 0.124256, 0.086744, -0.002762, -0.235172, -0.102222, 0.036235, -0.126928, 0.028945, 0.005494, 0.001504, 0.209864, -0.097389, 0.111201, -0.018221, -0.127751, -0.110653, 0.058214, 0.008023, 0.036224, 0.311111, 0.024509, -0.150966, -0.089186, -0.124285, -0.085278, -0.028408, -0.017061, -0.199096, -0.050981, 0.239996, -0.064346, 0.006153, -0.116212, -0.013860, -0.003824, -0.028866, -0.147725, 0.068414, 0.085798, 0.035687, 0.026815, -0.060447, 0.073504, -0.030915, 0.040358, 0.095829, -0.268361, -0.070475, 0.056293, -0.109036, -0.208429, -0.079341, 0.248559, -0.233778, 0.223892, 0.124067, 0.112073, -0.232212, -0.116312, 0.165025, 0.036483, 0.178487, 0.128501, -0.138321, 0.000450, 0.158933, -0.163246, -0.005213, 0.080703, 0.253099, -0.059413, 0.067922, -0.082438, -0.112926, -0.166386, 0.027404, 0.051128, 0.144467, 0.029519, 0.031849, 0.144981, -0.298681, -0.055528, 0.054863, -0.101920, 0.156485, -0.121812, 0.068434, -0.131531, -0.039920, -0.131164, -0.011758, -0.127258, -0.112113, 0.094610},
    {0.046472, 0.028866, 0.107592, -0.063058, -0.151260, 0.061060, -0.093070, 0.054062, -0.110766, -0.019070, 0.176331, -0.039629, -0.069618, -0.133275, -0.211630, -0.044408, 0.063047, -0.010868, 0.119399, 0.027160, -0.000581, -0.151246, -0.152803, 0.084710, 0.040098, -0.014075, -0.077656, 0.057132, -0.177517, 0.120509, -0.131959, 0.097166, -0.042118, -0.064135, 0.101371, -0.042105, 0.202550, 0.051840, 0.033420, 0.016863, 0.163557, 0.021193, 0.195450, 0.031608, 0.114226, 0.108355, 0.044992, 0.122484, 0.039298, 0.055072, 0.004443, 0.042369, 0.073699, 0.179347, 0.037949, -0.154565, 0.238624, -0.094874, -0.088851, -0.037513, -0.020576, 0.048102, -0.070318, -0.037353, 0.149283, -0.010021, -0.019348, 0.004148, -0.113580, -0.088642, 0.018509, -0.377090, -0.203477, 0.018443, 0.014136, 0.058861, 0.117442, -0.040491, -0.146330, -0.074059, -0.135085, 0.207550, -0.006702, -0.107419, -0.133193, -0.194749, -0.095099, -0.088983, 0.017762, 0.100373, -0.134769, -0.015991, 0.065243, 0.218903, 0.056171, -0.026459, 0.080881, 0.162862, -0.171914, 0.115180, 0.155180, 0.032938, 0.087230, 0.001171, 0.134550, -0.048821, 0.015138, 0.115882, 0.132016, 0.221199, 0.184808, 0.064894, -0.010224, -0.023962, -0.054921, -0.040302, -0.013187, 0.215507, 0.150291, 0.181079, 0.125118, 0.157933, -0.094552, -0.273627, 0.260760, 0.258939, -0.061797, -0.105307},
    {-0.022836, -0.061221, 0.079174, -0.165011, 0.058326, -0.222593, 0.118237, 0.070942, -0.160732, -0.131737, 0.044159, -0.049021, 0.101792, 0.180747, 0.163087, 0.061786, 0.021355, 0.082448, 0.096796, -0.021558, -0.072494, 0.166439, 0.221346, 0.099236, 0.204768, 0.125995, 0.084203, -0.021944, 0.062443, -0.067854, 0.192667, 0.151791, -0.121152, 0.100030, -0.024107, 0.122494, -0.207365, 0.042358, -0.068872, -0.120589, 0.003970, -0.141410, 0.141857, 0.159665, -0.066217, 0.085734, 0.066048, -0.019856, 0.120407, 0.089443, -0.140093, -0.094670, -0.149066, 0.061474, 0.105091, 0.097274, -0.005109, -0.031924, 0.180031, 0.033604, 0.188155, -0.133509, 0.067786, -0.021645, -0.164418, 0.249479, 0.001035, -0.010586, 0.032091, -0.152638, -0.086193, 0.026056, -0.016886, -0.203801, 0.137776, 0.054042, -0.177877, -0.058132, 0.148291, 0.116938, -0.113232, -0.065495, 0.088346, 0.047797, 0.011442, -0.045607, 0.061025, 0.054631, 0.146325, -0.084607, 0.064228, 0.126167, -0.094818, -0.015158, 0.162664, 0.152914, 0.042781, -0.038076, -0.154149, -0.012900, -0.081436, -0.040747, 0.049888, 0.129696, 0.004727, 0.017014, -0.037584, 0.100731, -0.053437, -0.033482, 0.045147, 0.000596, 0.131353, -0.061448, -0.101784, 0.049425, 0.044853, -0.034598, 0.016300, 0.108512, 0.006335, 0.059359, -0.017394, -0.045533, -0.120053, 0.054787, -0.117172, -0.076873},
    {-0.038388, 0.000934, 0.011425, -0.111284, 0.083885, 0.011798, -0.037059, 0.051311, 0.085239, 0.147967, 0.005630, 0.006636, -0.010991, -0.066643, -0.122554, -0.041669, -0.103383, 0.018674, -0.014173, -0.144659, 0.067602, 0.000059, 0.173769, 0.131408, -0.140766, 0.205830, 0.070521, -0.010984, 0.044133, 0.140212, -0.112079, -0.044360, -0.051900, 0.037785, -0.022637, 0.061168, 0.145461, -0.066709, 0.008292, 0.085369, -0.189083, 0.117607, 0.186038, 0.024608, 0.144191, -0.077806, 0.076534, 0.116310, 0.116453, 0.048109, 0.047840, -0.051196, 0.175444, 0.016586, -0.020002, 0.035563, -0.148239, 0.015096, -0.043181, -0.060318, 0.298988, -0.132654, 0.002754, -0.120559, 0.077906, -0.164629, 0.012795, -0.105137, 0.076767, 0.060203, -0.001319, 0.169397, 0.020268, 0.073408, -0.000965, -0.275643, -0.103388, -0.068300, -0.170744, 0.059901, -0.046832, 0.001410, -0.136224, 0.120597, -0.071617, 0.202562, 0.067959, -0.222239, -0.103564, -0.108983, 0.218231, 0.105564, -0.091081, 0.047416, -0.146948, -0.049355, 0.097907, 0.042789, -0.050220, -0.004316, -0.041422, 0.010800, -0.001197, -0.034874, -0.041148, -0.073888, -0.025684, -0.152846, 0.182053, 0.024630, -0.024069, 0.040738, 0.056178, 0.014854, 0.087507, 0.072734, -0.115372, 0.098453, -0.034039, -0.010245, 0.216335, -0.006853, -0.108744, -0.010016, 0.216826, 0.286863, -0.107788, -0.010534},
    {0.005087, -0.109038, -0.202156, -0.037116, 0.013302, 0.063179, 0.138209, -0.012992, 0.127129, -0.000376, 0.007193, -0.068014, 0.286044, 0.029945, 0.008944, 0.119333, 0.039920, 0.031774, 0.016893, 0.050809, -0.167365, -0.057922, -0.130222, -0.151137, -0.141374, -0.082511, -0.006657, 0.193657, 0.133794, -0.006693, 0.025560, -0.066981, 0.215687, 0.150850, 0.069084, -0.060198, 0.038398, 0.016325, -0.066346, 0.067888, 0.009110, -0.071288, 0.037427, -0.101367, -0.211720, -0.076742, 0.045042, 0.118649, -0.012941, -0.181415, -0.094600, -0.023144, -0.144103, 0.080461, -0.100653, -0.025182, -0.148529, 0.040597, 0.171590, 0.046333, 0.102054, -0.059825, -0.189022, 0.105326, -0.095816, -0.054001, 0.045126, 0.092886, 0.113739, 0.071889, 0.055268, 0.187377, 0.181409, 0.012449, -0.237938, 0.045441, -0.179793, -0.091808, 0.057721, -0.051962, -0.066390, -0.005180, 0.040403, 0.059358, -0.185167, -0.010367, -0.158460, -0.003929, -0.023857, -0.077929, 0.087330, 0.088493, 0.185486, -0.161125, -0.066994, -0.022795, 0.020086, -0.127220, 0.213314, -0.223545, -0.008852, -0.037127, 0.058777, -0.009092, 0.051389, 0.069807, -0.093088, 0.000363, -0.091134, -0.126303, 0.077315, 0.046902, 0.018518, 0.164079, 0.128151, -0.113977, 0.135959, -0.123920, 0.016981, -0.235737, 0.103879, -0.133687, 0.125363, -0.045188, 0.219804, 0.129962, -0.076792, 0.107580},
    {0.185314, 0.015798, -0.080133, 0.013090, 0.101496, -0.197165, 0.156370, 0.019254, 0.119353, -0.048734, 0.068763, -0.200193, 0.143611, -0.004423, 0.127403, -0.042298, -0.256535, 0.060721, -0.255488, -0.099120, -0.007758, 0.085260, 0.028629, -0.221581, -0.073243, -0.032782, -0.108873, 0.008787, 0.069453, -0.101676, 0.057098, 0.051713, -0.083506, -0.105426, -0.090048, 0.234046, 0.098122, -0.062622, 0.060916, -0.350284, -0.158838, 0.163918, -0.169495, 0.125885, -0.065505, 0.043347, -0.004121, -0.124559, -0.050235, -0.128480, 0.007578, 0.090393, -0.142553, 0.077684, -0.152770, -0.080653, 0.022766, 0.086950, -0.007341, -0.086284, -0.040425, -0.169499, 0.111617, 0.071993, 0.109034, 0.024800, -0.073205, 0.146021, -0.047921, 0.067628, -0.207642, 0.042970, -0.102568, -0.158818, -0.018157, -0.017524, -0.018300, 0.018265, -0.300902, 0.085962, -0.063185, -0.199040, -0.030162, 0.161835, -0.165755, 0.089326, -0.100850, 0.169382, -0.044000, 0.037449, 0.002016, 0.084102, -0.092453, -0.127942, -0.044482, 0.132692, 0.042603, -0.084134, -0.114974, 0.042855, -0.155414, 0.057445, 0.263495, 0.071047, 0.025452, -0.164868, -0.051454, 0.034133, 0.048034, 0.002102, 0.173655, 0.046679, -0.032753, -0.022712, 0.288156, 0.065514, -0.070022, -0.054725, -0.158651, 0.013859, -0.208073, 0.024424, 0.157370, 0.191351, -0.152561, 0.000193, 0.210005, 0.000121},
    {-0.139923, 0.001327, 0.153928, 0.048399, -0.010565, 0.057320, 0.232203, -0.055494, -0.197193, 0.062429, -0.168802, -0.033686, 0.041934, -0.202395, -0.062566, -0.006626, 0.005119, -0.100933, 0.002477, 0.078143, 0.143168, -0.089318, 0.012874, 0.160108, 0.006910, -0.203570, 0.128384, 0.028046, 0.052245, -0.157477, -0.073367, -0.062312, -0.021401, -0.049015, -0.192492, -0.169316, -0.045000, -0.238017, 0.081106, -0.035201, -0.114271, -0.156908, -0.117952, 0.043489, -0.133222, 0.014034, -0.035594, -0.163299, -0.146480, 0.155624, 0.105221, 0.073819, -0.141077, -0.095749, 0.106403, 0.087140, -0.104539, 0.035516, 0.099812, -0.120987, -0.179981, 0.222737, -0.019857, -0.095252, 0.151586, 0.267921, 0.094569, 0.064912, -0.048410, -0.156209, -0.057781, 0.181355, -0.051935, 0.093934, 0.028238, -0.013783, 0.003134, 0.046983, -0.077221, -0.167850, -0.066773, -0.096577, -0.019265, 0.018280, 0.140183, -0.000936, 0.033178, -0.108444, -0.010070, 0.040807, 0.020485, -0.006423, 0.091509, 0.126517, 0.062301, 0.117236, 0.249935, 0.055152, 0.176566, -0.040946, -0.003991, -0.107232, -0.189702, 0.138723, 0.121999, 0.021327, 0.006974, -0.038809, 0.056002, 0.122277, -0.045416, -0.089620, 0.059347, -0.002043, -0.110246, 0.022196, -0.141727, 0.007362, -0.055519, -0.004635, 0.114998, -0.063420, 0.023842, 0.051283, -0.235757, -0.052371, -0.032736, -0.183251},
    {-0.020651, 0.110322, -0.033818, 0.143579, 0.174404, -0.033861, -0.163913, -0.101540, -0.094318, -0.083931, -0.034748, -0.140997, -0.053873, -0.064200, -0.110475, 0.025446, 0.028900, 0.045861, -0.054973, 0.096091, -0.048792, 0.043091, 0.018027, 0.237483, -0.040013, 0.066006, 0.193921, -0.025196, -0.045660, 0.242685, -0.022308, 0.159991, 0.078533, -0.080407, 0.026437, -0.000592, 0.199056, -0.085891, 0.012486, 0.153975, -0.054621, -0.105358, 0.099981, -0.030836, -0.119691, -0.030308, -0.012045, 0.070327, 0.082470, 0.011395, -0.017044, -0.053247, 0.042779, 0.066366, 0.000830, 0.201454, 0.176309, -0.003182, -0.075083, 0.091861, 0.064441, 0.026886, 0.095251, -0.025743, -0.000839, 0.079614, 0.039878, 0.107026, 0.051062, -0.005166, 0.188679, -0.211632, -0.043983, 0.031832, 0.094791, 0.017096, 0.088055, -0.106120, 0.202014, 0.007600, -0.167753, 0.243326, -0.154317, 0.053497, 0.027600, 0.070998, 0.040041, -0.311363, -0.058644, 0.068527, -0.022631, 0.275533, 0.041557, 0.090259, 0.239651, 0.058254, -0.106021, 0.014693, 0.074642, -0.151550, -0.168347, 0.132362, 0.008319, -0.038106, 0.008851, -0.052673, 0.076533, 0.049567, 0.153644, -0.056619, -0.022402, 0.165802, 0.173290, 0.238371, 0.046551, 0.119035, 0.111027, -0.196569, -0.173344, -0.228795, 0.057114, -0.062386, -0.016062, -0.013707, 0.096607, 0.086736, -0.035435, 0.016115},
    {-0.019418, -0.106011, -0.126683, 0.215846, 0.088161, -0.076785, 0.089287, -0.015234, 0.134460, 0.253014, 0.061750, 0.109465, 0.031975, -0.025599, -0.066789, -0.115407, -0.080170, -0.114649, 0.244079, 0.010827, 0.189407, -0.032764, -0.109126, -0.113542, -0.000497, 0.028358, 0.084624, -0.276060, -0.114955, -0.055917, -0.105729, -0.005206, -0.069055, -0.130497, 0.055116, -0.030841, -0.142440, 0.012984, -0.032078, 0.129909, -0.076436, -0.024845, -0.175468, -0.165758, -0.042682, 0.050167, -0.047669, -0.106503, -0.066217, -0.039414, -0.171942, 0.135235, 0.013776, -0.292715, 0.179148, -0.055124, -0.005753, -0.189379, 0.044152, -0.040391, -0.024217, -0.099014, 0.005190, -0.064277, 0.050237, -0.060808, 0.147691, 0.019115, 0.084577, 0.003578, 0.012166, -0.010889, -0.130741, -0.085390, 0.133431, 0.091334, 0.065887, -0.123749, -0.076767, 0.020881, -0.063658, -0.041787, -0.070490, 0.058470, -0.028763, -0.016623, 0.131720, -0.012323, -0.224985, -0.078101, -0.070571, 0.103948, -0.006896, 0.159410, -0.076731, -0.140714, 0.033457, 0.068500, 0.196107, -0.021814, 0.041657, -0.169918, 0.135947, 0.041571, -0.041020, 0.175160, -0.008464, 0.146397, -0.066657, 0.157013, 0.136798, 0.066845, -0.148818, 0.164479, 0.065540, -0.043258, -0.036548, 0.011956, -0.239215, -0.061946, -0.100426, 0.063903, 0.145954, 0.096077, 0.041910, 0.127667, -0.000401, 0.090042},
    {0.164611, 0.063490, -0.012768, 0.046518, -0.086716, -0.136246, -0.089643, 0.020046, 0.205132, 0.025867, 0.176690, -0.030108, -0.111226, 0.189438, -0.086871, 0.121801, 0.158625, -0.127417, 0.094262, 0.075223, 0.104585, 0.164733, -0.050325, 0.215242, -0.138123, -0.014646, -0.133572, 0.184883, -0.018042, -0.008602, -0.088986, 0.069267, 0.117685, 0.189410, 0.187240, -0.181796, 0.174074, -0.074019, 0.105881, -0.121932, 0.080561, -0.028023, 0.123227, -0.008137, 0.132266, 0.045540, 0.075700, 0.055337, 0.010457, 0.147386, 0.026708, -0.029879, 0.079222, -0.056885, 0.005619, 0.074368, 0.124886, 0.053868, 0.275851, 0.080464, 0.094004, 0.128689, 0.069402, -0.188478, 0.302313, -0.198884, -0.039998, 0.067899, -0.223080, 0.143159, 0.121375, -0.151454, -0.141820, 0.126009, 0.022463, -0.004615, -0.046581, -0.118004, 0.054808, -0.120804, 0.026310, -0.074422, -0.211442, 0.138891, -0.078842, 0.087086, -0.237520, 0.080881, 0.128720, 0.033017, -0.107915, 0.008767, -0.057152, 0.135536, -0.020773, -0.119283, 0.085107, 0.253388, 0.255995, 0.051721, 0.322821, -0.022264, 0.216176, 0.030677, -0.025492, 0.066866, -0.010458, -0.094176, -0.010827, -0.015867, 0.165903, -0.059057, -0.157459, -0.039772, -0.100599, 0.261463, -0.106006, 0.015219, -0.156090, -0.059793, 0.210827, 0.008752, -0.010777, -0.033661, -0.136920, 0.033927, -0.159268, 0.093666},
    {-0.044434, -0.014592, -0.063941, -0.031434, 0.023523, 0.089345, -0.121226, 0.172551, -0.047957, -0.146571, 0.012681, -0.211578, -0.201499, 0.177293, -0.162647, -0.084375, -0.021411, 0.003742, -0.067610, 0.177092, 0.162210, -0.058665, 0.045297, 0.095409, 0.071671, -0.058900, 0.007234, 0.198892, 0.209499, -0.045174, -0.158788, -0.021281, 0.116082, -0.106039, 0.067622, -0.015653, -0.138768, 0.007240, 0.141874, 0.029595, -0.114053, 0.026130, -0.111215, -0.038524, -0.011577, -0.186590, -0.041587, -0.065460, -0.037114, -0.028239, 0.124238, -0.050261, 0.048143, 0.054686, -0.031450, 0.053496, -0.094070, 0.057160, 0.108097, 0.090787, 0.005764, 0.156915, 0.165470, 0.133938, -0.019183, -0.051663, 0.192714, 0.050132, 0.018371, -0.189297, 0.248461, -0.105218, 0.003660, 0.115162, -0.134347, 0.206157, -0.193822, 0.144609, -0.002254, 0.090742, -0.097559, 0.009406, 0.172222, -0.128280, 0.101850, 0.070856, 0.048601, -0.182993, 0.003652, -0.070948, 0.043013, 0.116498, -0.108365, -0.124374, 0.008003, -0.150621, -0.109264, -0.059262, 0.109704, -0.149111, -0.085567, -0.284585, 0.093457, -0.167835, 0.072447, 0.118835, -0.182874, -0.234068, -0.215125, -0.051189, -0.072505, 0.008784, 0.154573, 0.060148, -0.034769, -0.035461, 0.249083, 0.016709, -0.072295, 0.077625, 0.151817, 0.075606, -0.069612, 0.123026, -0.023188, 0.077119, 0.162992, 0.182490},
    {0.187250, 0.234429, -0.137950, 0.025547, -0.009225, -0.169656, -0.037696, -0.150061, 0.117202, -0.208808, -0.076917, 0.081153, 0.094979, -0.072503, -0.087389, -0.083673, 0.075684, -0.169053, 0.001645, -0.028575, 0.105787, 0.158208, -0.079365, 0.007388, -0.170977, -0.076670, 0.099486, -0.115401, -0.037306, -0.019690, -0.013854, 0.097859, 0.087720, -0.148592, 0.128532, 0.015687, -0.011417, -0.064523, -0.197470, 0.036916, -0.123886, 0.008903, 0.081855, -0.044363, -0.112933, 0.089730, -0.056327, 0.013060, -0.062820, 0.083209, -0.058783, 0.046074, 0.206344, -0.114891, 0.194685, 0.062648, 0.126143, -0.162533, 0.072129, -0.071989, 0.011116, 0.163566, 0.009467, -0.090236, -0.049077, -0.060941, 0.041197, 0.012243, -0.247656, 0.135879, -0.185939, 0.073705, -0.181395, -0.259547, -0.121091, 0.147715, -0.098870, 0.067940, 0.080355, -0.130396, 0.014620, -0.120758, 0.081898, 0.116123, 0.088064, 0.038563, -0.083626, -0.196593, 0.050111, 0.108371, 0.026511, 0.094360, 0.166764, 0.111686, 0.048542, -0.007913, 0.050615, 0.020304, -0.045686, -0.103213, -0.162475, -0.060285, -0.083239, 0.065303, -0.067061, 0.306047, 0.114034, -0.083770, 0.145651, 0.060310, 0.075449, 0.092609, -0.178012, 0.204539, -0.028382, -0.022281, 0.038625, -0.073483, -0.132874, -0.269146, -0.001629, -0.033331, 0.025697, 0.280291, 0.141865, 0.068557, -0.079331, 0.193897},
    {-0.049044, 0.026346, -0.060397, -0.001306, 0.087708, 0.036017, -0.188936, -0.164342, 0.122712, -0.074243, 0.026295, -0.233906, -0.008931, -0.018510, 0.011408, -0.002512, 0.040603, -0.017583, 0.075310, -0.049142, -0.145837, 0.048023, -0.015113, -0.074880, 0.031008, 0.028246, 0.150298, 0.039378, -0.049261, -0.195426, -0.101334, 0.072133, 0.159048, -0.024513, -0.002934, -0.227414, 0.016474, -0.124766, -0.111511, 0.124071, 0.029050, -0.114991, 0.276260, -0.028025, -0.169426, 0.116773, 0.273563, -0.171204, 0.161822, 0.137717, 0.061917, 0.043916, 0.207885, 0.185292, 0.004868, -0.313618, 0.023117, -0.066655, 0.174810, -0.063762, 0.192774, 0.236245, -0.122342, 0.105784, -0.077806, -0.210147, -0.106495, 0.025199, -0.146960, -0.030292, -0.016072, 0.113772, -0.107171, -0.028641, -0.125350, 0.176192, 0.025114, 0.173293, -0.011285, 0.028553, 0.056177, -0.121435, -0.087256, -0.100967, 0.098608, -0.068562, -0.028011, 0.066312, 0.043820, 0.082848, -0.143500, -0.003336, -0.102528, -0.064568, 0.189324, -0.180000, -0.023075, 0.003103, -0.231109, -0.106748, 0.291703, -0.056928, -0.142199, 0.021296, 0.193160, -0.002298, 0.064443, -0.160515, 0.017116, -0.028853, 0.030235, -0.345487, -0.092316, -0.120028, -0.106227, 0.074298, -0.052048, 0.081846, 0.166075, -0.072419, -0.107727, -0.000140, 0.033823, 0.104849, 0.006684, 0.157846, 0.227357, -0.102924},
    {0.190509, 0.430304, 0.242169, -0.065826, -0.148760, 0.109352, 0.183508, 0.138913, 0.125819, 0.143015, -0.095971, 0.012883, -0.100757, 0.141272, -0.026660, -0.048767, 0.000855, 0.084022, 0.016870, -0.063085, -0.071693, -0.044461, -0.007930, -0.062174, -0.051668, -0.023947, -0.246559, -0.047564, 0.113055, 0.049705, -0.087206, 0.185536, 0.110440, -0.002200, 0.003766, -0.182140, 0.141550, 0.032187, -0.046989, -0.085431, -0.164227, 0.261019, -0.061152, -0.025566, 0.091792, -0.135898, -0.088758, 0.004107, -0.025509, -0.042362, -0.049857, -0.259325, 0.069851, -0.185052, -0.078061, 0.021226, -0.110281, -0.202863, -0.015340, 0.073100, 0.068034, -0.305004, 0.055058, -0.018692, -0.053675, 0.031819, 0.126184, -0.088743, -0.034633, 0.058428, 0.047933, -0.108953, -0.196465, 0.104535, -0.002717, -0.128881, 0.012592, 0.028745, 0.066817, 0.061267, 0.024048, -0.042117, 0.159252, -0.009654, -0.156893, -0.051503, -0.134791, -0.007993, 0.066769, -0.094681, 0.056598, -0.249838, 0.064199, 0.137889, -0.077346, -0.066958, -0.151287, -0.088260, 0.017116, 0.003036, -0.089280, 0.021419, -0.024873, -0.009763, 0.106487, -0.094487, -0.051868, -0.001640, -0.048367, -0.017450, 0.082812, -0.020779, -0.164720, 0.116319, 0.008798, -0.022255, -0.016760, -0.160085, 0.076237, -0.106092, 0.127867, 0.017788, 0.000824, -0.080774, -0.056499, 0.022083, 0.037385, -0.028826},
    {0.134044, 0.206345, 0.006660, -0.026697, -0.043736, 0.028707, -0.056530, -0.010886, -0.118985, -0.029110, -0.224931, -0.157900, -0.173840, 0.050103, 0.123444, -0.158702, -0.116164, 0.011039, -0.209117, -0.032190, -0.118045, -0.059258, -0.050999, 0.069559, -0.029959, 0.008017, 0.085136, -0.003370, 0.072461, 0.094232, -0.031366, -0.020878, -0.032728, -0.084727, 0.066795, -0.195372, 0.010676, 0.094768, -0.137289, -0.073765, -0.098417, 0.039172, -0.060012, -0.004331, -0.050963, -0.021683, -0.049037, -0.047287, 0.024992, -0.162330, 0.225336, 0.037641, 0.063919, -0.034043, -0.165315, 0.131772, 0.099571, -0.220224, 0.194737, 0.036988, -0.062942, 0.055980, -0.083985, -0.038682, 0.023651, -0.025783, 0.068092, -0.117103, 0.108593, 0.053883, -0.080766, 0.087391, 0.084294, 0.233896, -0.124075, -0.143756, -0.296176, -0.054938, 0.028555, -0.035485, -0.086906, -0.086205, -0.066026, 0.025684, 0.050567, 0.106579, -0.065315, 0.136368, -0.094313, -0.117078, 0.052485, -0.134195, -0.039575, -0.006506, 0.021112, 0.110957, -0.097299, -0.026679, -0.051692, 0.078647, 0.001948, -0.073472, 0.058803, -0.089639, 0.008787, -0.148723, -0.144225, 0.082292, 0.115085, -0.111963, -0.160929, 0.059693, 0.039206, -0.098800, 0.027812, -0.025778, 0.349229, -0.150232, 0.027226, 0.229215, -0.104807, -0.094652, 0.046038, 0.072330, -0.138743, -0.167762, -0.003640, 0.096123},
    {0.021385, 0.016267, -0.178686, 0.142543, 0.116258, 0.021326, -0.085901, -0.123793, 0.161976, -0.095664, -0.122963, 0.023603, -0.027872, -0.014947, -0.083187, 0.095925, -0.069029, 0.007533, 0.049328, -0.072266, 0.054821, -0.047656, -0.190427, -0.113939, -0.111895, -0.037474, 0.020436, -0.072002, -0.014110, -0.045377, -0.023263, 0.068287, -0.032964, -0.117509, -0.146319, -0.017271, -0.098315, 0.193911, 0.062649, -0.108873, -0.010326, 0.007285, -0.016098, -0.153012, 0.033896, 0.262525, 0.150218, -0.036119, -0.076812, 0.171416, 0.002547, -0.126854, 0.220334, 0.026844, 0.108390, -0.054522, -0.012444, -0.122319, -0.061261, -0.190180, 0.174318, 0.078351, -0.039956, -0.034067, -0.168055, -0.006397, 0.050378, -0.049799, -0.075443, 0.148158, -0.063977, -0.122416, 0.121899, 0.045595, 0.020816, 0.157395, 0.003033, -0.081520, 0.309460, -0.011866, 0.031884, 0.191128, 0.037797, -0.294123, -0.120070, -0.114779, -0.141809, 0.098524, 0.026363, 0.249879, -0.068159, 0.111211, 0.061629, -0.051442, -0.059650, -0.120479, -0.045674, 0.177514, -0.224522, 0.018931, -0.018536, -0.007207, -0.131866, 0.185725, -0.215359, -0.038319, -0.024155, 0.031667, -0.129999, 0.050743, -0.108736, -0.135724, 0.014395, 0.178500, -0.090155, 0.017646, -0.060498, -0.121072, 0.031443, -0.267773, -0.080345, -0.073239, -0.062233, 0.062625, -0.017413, -0.044353, 0.139959, 0.057676},
    {0.076653, 0.012625, -0.096133, 0.253206, 0.079542, -0.131449, -0.146133, 0.033067, -0.077153, -0.138139, 0.000147, 0.081149, -0.173747, 0.198411, 0.075982, 0.056739, 0.148867, -0.081335, -0.195618, -0.169924, 0.141295, -0.109226, 0.074237, 0.088229, -0.167043, 0.141078, 0.137200, 0.025577, -0.051958, -0.042817, 0.122332, -0.181238, 0.047754, -0.095641, 0.071316, -0.243740, 0.081087, 0.031128, 0.126576, -0.199642, 0.199995, -0.061973, -0.193247, -0.004067, -0.044790, -0.109093, -0.083081, -0.112545, 0.026223, 0.007288, -0.063411, -0.039581, 0.094184, 0.032910, -0.017439, -0.089870, -0.010940, -0.040067, -0.056491, 0.066082, -0.236196, 0.086303, -0.003384, -0.030471, -0.136488, 0.087271, -0.161194, -0.182047, -0.016008, -0.009861, 0.089495, -0.000376, -0.162011, -0.102399, 0.009643, 0.182747, 0.054599, -0.101642, 0.136179, 0.035059, 0.102119, -0.075522, -0.042156, 0.050643, -0.006578, 0.048879, 0.075202, 0.242412, -0.103635, 0.062589, 0.114297, 0.021395, 0.059109, 0.048762, -0.121281, 0.038558, -0.037500, 0.011880, 0.115284, 0.022207, -0.031642, 0.008855, -0.120354, 0.040093, 0.022679, 0.080959, 0.000069, -0.134197, 0.006083, -0.082085, -0.069552, -0.024656, 0.034669, 0.024529, -0.094769, -0.007729, 0.167145, 0.130956, 0.014982, 0.090522, 0.037758, 0.062554, 0.132432, 0.039651, 0.058908, 0.165079, -0.074042, -0.109731},
    {-0.230884, 0.143795, -0.068434, -0.116262, 0.073684, -0.063653, -0.020993, 0.070091, 0.080463, 0.005725, -0.063590, 0.058160, 0.087748, 0.134072, -0.015173, 0.095897, -0.072915, -0.182346, -0.170173, -0.211567, 0.070315, -0.107427, -0.030536, -0.094165, -0.105163, -0.059518, -0.069318, -0.047940, 0.066064, -0.121430, 0.054614, -0.071952, -0.117650, 0.070689, 0.083197, 0.130512, 0.000214, -0.039592, -0.098620, 0.010171, -0.134767, 0.008970, -0.177727, 0.020351, 0.047890, 0.023074, -0.029319, 0.057479, 0.159649, 0.100331, -0.172837, 0.198067, -0.055607, -0.028810, -0.035292, -0.112860, 0.071444, 0.114559, -0.267937, -0.023294, 0.091818, 0.009324, -0.133669, -0.060580, 0.045689, 0.082698, 0.017027, -0.016326, -0.036427, 0.041688, 0.027346, -0.060241, -0.022395, -0.024890, -0.058218, 0.011728, -0.034270, -0.025067, 0.038780, 0.012108, 0.154355, -0.092181, 0.141980, 0.014727, -0.023581, 0.012334, 0.166452, 0.016516, 0.202952, -0.142404, 0.054267, -0.136170, -0.251056, 0.075321, 0.057750, 0.104354, -0.178733, -0.199759, 0.008173, 0.061881, 0.053973, 0.167700, -0.023632, -0.109398, 0.155095, -0.106147, -0.152502, -0.112170, 0.181967, -0.082582, 0.041587, -0.064557, -0.114366, -0.008548, 0.100568, 0.173377, 0.050321, -0.081444, -0.041794, -0.106438, 0.175765, 0.103357, -0.043060, -0.108591, 0.106082, 0.156042, -0.011700, -0.026990},
    {-0.026463, -0.113278, 0.079573, -0.068705, -0.036369, -0.049092, -0.093904, -0.090792, -0.193761, 0.134982, -0.052981, -0.017977, 0.063030, 0.052598, 0.057094, 0.036222, -0.026262, 0.092838, 0.095091, 0.055286, -0.116730, 0.003599, 0.264080, -0.048765, 0.026530, 0.058099, -0.074547, 0.108834, 0.141141, 0.148484, 0.011235, -0.034912, 0.136308, -0.025262, 0.174104, 0.029569, 0.188359, -0.096692, 0.068350, 0.131397, -0.101244, -0.068406, 0.017770, 0.113274, -0.047097, 0.002081, 0.112600, 0.122193, -0.051741, 0.026679, 0.072931, -0.104110, 0.199634, -0.103015, -0.014715, -0.015956, -0.131661, -0.030424, -0.026256, 0.068647, 0.234859, -0.035341, 0.024975, 0.056470, -0.008447, -0.031857, -0.083553, -0.034376, -0.146359, 0.060014, 0.021076, -0.066921, -0.112711, 0.005279, 0.022314, -0.098724, 0.201055, -0.016688, 0.200927, 0.099357, 0.061878, 0.066381, -0.175248, 0.036408, 0.115604, 0.006477, 0.125970, 0.107527, -0.095687, -0.239141, -0.017145, -0.237054, -0.083010, 0.102038, -0.032035, -0.154282, -0.118822, 0.093226, 0.084304, 0.106368, 0.131183, -0.032463, 0.128112, 0.040616, -0.139529, -0.242761, 0.183848, 0.050499, -0.138540, 0.049408, 0.010414, 0.047129, -0.122097, -0.103512, -0.211024, 0.127291, -0.017477, 0.135126, 0.012776, -0.138405, 0.113379, -0.062034, -0.092311, 0.090981, -0.036757, 0.017787, -0.213578, -0.020793},
    {0.088500, 0.232986, -0.028923, -0.103906, -0.043194, 0.168602, -0.017407, -0.125351, -0.051911, 0.040776, 0.034110, -0.310371, -0.117207, 0.078147, -0.023273, -0.033877, 0.003136, 0.001588, -0.104724, 0.129829, 0.013510, -0.052063, -0.047229, 0.024313, 0.023845, -0.139838, 0.104420, -0.125671, -0.146736, 0.057913, 0.124615, -0.118166, 0.132246, -0.000549, -0.037131, 0.024194, 0.068031, -0.087093, -0.088517, -0.088987, 0.220682, -0.162401, 0.011362, -0.100209, 0.128469, -0.016970, 0.004906, -0.130342, 0.181802, 0.000036, 0.071200, 0.246001, 0.113638, 0.195993, -0.017841, -0.029644, 0.107477, 0.079577, -0.041511, 0.149868, 0.075136, 0.072710, 0.071070, 0.172045, -0.049185, 0.093230, -0.198486, 0.004300, 0.039678, -0.028040, -0.069690, 0.111264, 0.102462, 0.023326, -0.091407, -0.236371, 0.040383, -0.047936, 0.014357, -0.062158, 0.132239, -0.210037, 0.064264, 0.012654, 0.240718, 0.011018, 0.046237, -0.256110, 0.084214, 0.160418, -0.224522, -0.006128, -0.109741, -0.145262, 0.043044, -0.074783, 0.101081, 0.017979, -0.008685, -0.300559, -0.018959, 0.122021, 0.021789, 0.146525, 0.203047, -0.192920, 0.040024, -0.025735, -0.004304, -0.064300, -0.110329, 0.100090, -0.070811, -0.117275, 0.177696, -0.043083, -0.132632, -0.210871, -0.048930, -0.094057, 0.044302, 0.056504, 0.069519, -0.062697, 0.251990, -0.076253, 0.020278, 0.051588},
    {0.130896, 0.192542, 0.145743, 0.004591, 0.103761, 0.316223, -0.037959, 0.019749, -0.200324, 0.081299, 0.091529, -0.109510, 0.145120, 0.065653, -0.109203, -0.094006, -0.224040, 0.016545, -0.080134, -0.064980, 0.026480, 0.122825, 0.041252, -0.070052, 0.016269, -0.034146, 0.061732, -0.097246, -0.028794, 0.031994, -0.208618, 0.140293, 0.016909, -0.044909, -0.084118, 0.047921, 0.081195, 0.150332, -0.027651, -0.113207, -0.159145, -0.045929, -0.214905, -0.056573, 0.019853, -0.022534, -0.069111, 0.106984, 0.184585, 0.026128, -0.163704, 0.268442, -0.056324, -0.145479, -0.169424, 0.198587, 0.058084, -0.034009, 0.150134, -0.268481, -0.190039, -0.131446, 0.013114, -0.010995, 0.058727, 0.020723, -0.008357, 0.005194, 0.128993, 0.064270, -0.101385, -0.057911, -0.026298, 0.012357, -0.045695, 0.053570, 0.160543, -0.043281, 0.180044, 0.177294, -0.168806, -0.087510, 0.056561, 0.038965, 0.189863, 0.049060, -0.071444, -0.015608, -0.099133, -0.038798, 0.070754, 0.184832, -0.046191, -0.063666, 0.011799, -0.065014, 0.142704, 0.180420, -0.026025, -0.082455, -0.043340, 0.131529, 0.052438, -0.046132, -0.129085, 0.268301, -0.028630, -0.144145, -0.044021, -0.149856, 0.008604, -0.023843, 0.012596, -0.128867, -0.041392, 0.011490, -0.087713, -0.012191, 0.071410, -0.072870, 0.001815, 0.012523, 0.156971, 0.147887, -0.029063, -0.018353, 0.263523, 0.089529},
    {0.151255, 0.042919, -0.048852, -0.067168, -0.136020, -0.010136, -0.040481, 0.315380, -0.051352, -0.038793, -0.022077, -0.045900, 0.043924, -0.070356, -0.127790, -0.012415, -0.229157, -0.137751, 0.067727, 0.090963, 0.148121, -0.044545, -0.047031, 0.099965, -0.046181, -0.000620, 0.013425, -0.227773, 0.061328, -0.154680, -0.024796, -0.021467, 0.091678, 0.049939, -0.149381, -0.025918, -0.056108, -0.063581, -0.098712, 0.029161, 0.030202, 0.039376, -0.082660, -0.065559, 0.032743, 0.137920, 0.178082, 0.027286, 0.085309, -0.168892, -0.157669, -0.117409, -0.025801, 0.106546, -0.138683, 0.068800, -0.099314, 0.033460, -0.003709, 0.103419, -0.075873, 0.071653, 0.388004, 0.047044, -0.064549, 0.012628, -0.101766, 0.057118, 0.135342, -0.033262, -0.036075, -0.131189, -0.164059, -0.011915, 0.137739, 0.019904, -0.014500, -0.148747, -0.199584, 0.069661, 0.008856, -0.058169, -0.007881, 0.132177, -0.006885, 0.106805, -0.095274, -0.095846, 0.000249, 0.022349, 0.175593, -0.042871, -0.184019, 0.021629, -0.035361, -0.150336, 0.123000, -0.124734, -0.072350, -0.056134, -0.036965, 0.006015, 0.089282, 0.018483, -0.086090, 0.039361, 0.233304, 0.060262, -0.132707, -0.092525, -0.085976, -0.126359, -0.078515, -0.189102, 0.046738, 0.016945, 0.065020, -0.166689, 0.008239, -0.017708, -0.099217, 0.028103, 0.079417, -0.158625, 0.181375, 0.094534, 0.275385, -0.155538},
    {-0.024029, -0.273565, -0.035113, -0.211021, 0.066571, -0.204957, -0.127119, -0.049617, 0.084218, -0.074099, -0.032721, 0.046658, -0.057837, -0.039995, 0.141346, -0.049540, -0.036512, 0.175555, -0.039782, 0.004073, -0.019091, -0.056296, -0.103773, -0.084579, -0.062884, -0.036050, 0.035097, -0.008799, 0.159484, 0.114158, 0.022501, -0.067255, -0.127517, 0.021640, 0.102304, 0.175441, 0.014480, 0.173977, -0.279422, 0.002005, -0.240447, 0.044249, -0.002561, -0.190457, 0.015932, -0.150109, 0.208416, 0.082682, 0.005351, 0.087558, 0.063018, 0.050245, 0.105701, 0.109298, -0.149306, 0.055960, 0.229018, -0.034100, 0.045768, -0.063432, 0.142532, 0.061238, -0.269368, -0.217089, 0.067740, -0.115551, 0.121541, 0.135332, 0.007585, 0.172225, 0.068811, 0.190455, -0.045124, 0.098234, 0.014440, 0.132729, -0.201376, -0.064884, 0.011008, 0.095850, 0.094227, -0.115021, -0.114126, -0.030661, -0.012333, 0.036704, 0.032314, 0.194913, -0.152201, -0.104601, -0.062522, 0.070530, -0.073093, 0.056547, -0.209236, -0.068494, -0.028915, -0.056663, 0.115282, 0.112355, 0.084603, -0.095716, -0.060839, 0.020793, 0.114211, -0.100700, 0.023094, 0.028427, -0.117121, 0.163095, 0.161076, 0.249032, 0.006823, 0.095801, -0.094822, -0.141082, 0.100913, -0.128991, 0.008242, -0.022079, 0.072033, -0.199880, 0.010987, -0.007095, 0.033571, -0.069910, 0.036886, -0.007987},
    {0.105764, -0.059852, -0.031341, -0.011549, 0.058786, -0.034083, 0.125153, 0.037842, 0.007984, -0.084168, -0.014011, -0.222392, 0.186358, 0.113122, 0.077991, 0.076322, 0.032361, 0.065947, -0.055290, -0.066317, 0.033715, -0.022258, -0.077041, 0.057682, -0.012439, -0.142249, -0.136353, -0.101329, 0.053723, 0.083693, 0.015381, 0.018631, -0.107004, -0.079261, -0.044069, 0.034445, -0.020289, -0.055842, -0.016185, -0.002608, -0.050587, -0.073186, -0.080674, 0.199434, 0.193105, -0.133274, 0.068436, 0.098561, -0.063234, -0.081232, 0.036972, 0.192299, 0.138810, 0.063401, 0.066129, -0.041676, 0.069433, 0.098828, 0.093381, -0.114470, 0.176501, -0.055614, -0.040935, -0.038422, -0.187790, 0.150985, 0.137945, 0.083762, -0.013192, 0.139324, -0.067403, 0.151606, 0.031300, 0.034438, 0.025324, -0.025695, -0.106942, -0.134614, 0.026509, 0.047866, -0.090312, -0.118114, 0.019809, -0.050387, -0.189733, -0.018739, 0.050110, 0.109240, -0.123730, 0.058755, 0.082170, -0.006378, 0.174139, 0.129682, 0.016100, 0.054167, 0.081107, 0.077164, -0.079922, -0.031469, -0.018947, -0.039343, -0.128908, 0.060242, -0.083501, 0.016697, -0.208616, -0.074693, 0.021251, 0.014960, 0.081025, 0.161929, 0.012564, 0.066205, 0.165575, 0.028498, -0.158322, -0.073538, 0.004470, -0.085689, 0.262750, -0.087731, -0.143797, -0.150080, 0.049881, -0.090048, -0.003709, 0.047451},
    {-0.040986, 0.147081, 0.139956, -0.207846, -0.191508, 0.135523, 0.002284, -0.027714, -0.065639, 0.032355, 0.291277, -0.007691, 0.113828, 0.057721, 0.024265, -0.093149, -0.030722, 0.015453, 0.005217, 0.026254, -0.204105, 0.079741, -0.049463, 0.134491, 0.041327, -0.038914, 0.016320, 0.090544, -0.193065, 0.056531, -0.116323, 0.066765, 0.155483, -0.054099, 0.058128, -0.202293, 0.119857, -0.027189, 0.075268, 0.113018, -0.101399, 0.144802, 0.250485, -0.119438, -0.025234, 0.029797, 0.040576, -0.052162, -0.095113, -0.073098, -0.021417, 0.202677, -0.013783, 0.015133, 0.046109, -0.215751, -0.047356, 0.178832, 0.020198, -0.018696, -0.273650, -0.006326, -0.074034, 0.319665, -0.159868, 0.101703, -0.098329, 0.118114, 0.087640, 0.083936, 0.082651, 0.072095, -0.067564, -0.027204, 0.214959, -0.040877, -0.112979, 0.046161, -0.126097, -0.041747, 0.024925, -0.086565, 0.077813, -0.102226, 0.104278, -0.020312, -0.021343, 0.115224, -0.049329, 0.090299, -0.002231, 0.204527, -0.044602, -0.169250, 0.054152, -0.112498, -0.105436, -0.165098, -0.076410, 0.066584, -0.106778, -0.108077, 0.096632, -0.149852, -0.194866, 0.146502, -0.139433, -0.067649, -0.018502, -0.019941, -0.225538, -0.023264, 0.194559, 0.057892, 0.053989, -0.279505, 0.010950, 0.035612, 0.162892, 0.015735, 0.003482, 0.132877, -0.024316, -0.101800, 0.094809, 0.028449, -0.138878, -0.116932},
    {-0.020581, 0.119778, 0.232459, 0.092022, -0.025503, 0.042030, 0.068539, -0.166002, -0.056066, -0.156047, -0.200741, -0.059214, 0.009691, -0.065027, 0.226272, 0.021020, 0.034537, -0.061996, 0.095921, 0.107760, -0.053619, 0.101235, -0.156511, -0.084815, -0.162219, -0.206047, -0.032286, -0.054963, -0.045140, -0.137057, -0.056667, 0.013015, -0.058893, 0.011407, 0.045171, -0.009409, -0.029035, -0.007339, -0.046867, 0.081049, -0.023269, -0.038427, -0.087311, -0.166704, -0.088159, -0.234856, 0.041622, -0.049455, -0.075846, 0.047030, -0.081599, 0.194768, -0.144581, 0.099036, -0.001030, 0.112151, 0.120973, -0.138440, 0.098472, 0.138029, -0.039169, -0.121942, -0.041927, -0.071302, 0.083148, 0.138741, -0.054630, -0.045378, -0.251669, 0.026944, 0.064665, -0.104822, 0.141845, -0.112778, 0.018628, -0.069500, 0.044776, -0.044394, 0.065664, 0.049709, 0.011296, 0.246884, -0.097503, -0.065404, -0.258456, -0.111759, 0.063313, -0.002339, -0.146980, 0.009662, 0.156156, 0.084342, 0.014504, -0.195204, -0.068292, 0.078293, -0.010900, -0.006388, -0.089971, -0.016194, 0.096499, -0.030249, -0.109827, -0.027364, 0.119413, -0.103228, -0.091932, 0.076625, 0.145857, -0.040341, -0.058788, -0.086647, -0.141320, 0.084196, 0.039426, -0.028523, 0.035620, 0.062203, 0.203875, 0.199314, 0.272029, 0.178538, -0.166415, -0.145125, 0.062170, 0.091136, -0.094707, -0.076243},
    {-0.103428, -0.067033, -0.122155, -0.071712, -0.098683, -0.034947, -0.086966, -0.038522, 0.009524, -0.070778, -0.176918, 0.032695, 0.069927, -0.127143, -0.049132, 0.169356, 0.181800, -0.120777, -0.067952, -0.024849, -0.187086, 0.168962, -0.190474, 0.212300, 0.068005, 0.066390, -0.056249, -0.009669, 0.130452, -0.136534, 0.084329, -0.229914, 0.113433, 0.021026, -0.087440, -0.058155, 0.032510, 0.014575, -0.037466, -0.306778, -0.084023, -0.134843, 0.044107, -0.005337, -0.217597, 0.045689, 0.185129, -0.015764, 0.007531, 0.034889, 0.011566, 0.049004, -0.130058, 0.034086, 0.062101, 0.007394, -0.086526, 0.012160, 0.234524, 0.037731, -0.072534, 0.047716, -0.315095, 0.045102, -0.004553, 0.184295, -0.141562, 0.016376, 0.027929, -0.081491, -0.127026, 0.047259, 0.169426, 0.112654, -0.058374, -0.148697, 0.119791, -0.101856, 0.023289, -0.035029, 0.087697, -0.005894, -0.092538, 0.137752, 0.251952, 0.108333, -0.000118, -0.050998, 0.146009, 0.113515, 0.017839, 0.037426, 0.033348, 0.119974, -0.013397, 0.000955, 0.085717, -0.263269, 0.205024, -0.136706, -0.102437, 0.240573, 0.049877, -0.082339, -0.063548, -0.153006, 0.066048, -0.033437, -0.081184, 0.063708, 0.143600, -0.021717, -0.061530, 0.170165, 0.030568, -0.047010, -0.032529, 0.027262, 0.161030, -0.032188, -0.105764, 0.021984, 0.020030, -0.103094, -0.169179, -0.022869, -0.007066, -0.079828},
    {-0.028344, 0.001833, 0.096189, 0.019190, 0.106500, 0.027426, 0.042017, -0.028986, -0.153666, 0.076953, 0.099062, 0.219872, 0.025859, -0.036392, -0.034706, 0.141792, -0.127389, -0.146635, -0.169983, -0.251006, -0.233094, -0.118845, 0.013083, 0.042287, -0.006097, -0.023443, -0.044570, -0.052711, -0.126250, 0.019178, 0.248748, -0.023024, -0.034597, 0.024747, 0.073081, -0.088932, 0.081242, 0.246759, -0.075172, 0.044619, 0.020328, -0.076350, 0.101202, 0.020244, -0.067452, -0.084895, -0.024333, -0.034813, 0.092105, 0.284956, 0.214493, 0.061811, -0.019488, -0.076379, -0.338885, -0.023134, -0.098265, -0.103844, 0.060048, -0.005805, 0.004077, -0.195472, 0.090517, 0.144080, -0.137856, 0.028948, 0.063141, 0.148541, 0.001707, -0.234415, 0.035120, -0.095973, 0.164812, -0.092099, 0.055560, -0.084730, -0.027604, 0.065526, -0.020013, 0.025695, 0.039013, -0.045381, 0.174602, -0.008075, -0.076162, -0.264799, 0.044765, 0.005093, -0.082296, 0.040263, 0.077796, -0.033377, 0.144884, -0.158902, 0.085029, 0.028327, -0.158152, 0.017419, -0.181265, 0.097743, -0.183746, 0.150124, -0.139796, -0.037998, -0.247801, -0.054062, 0.145350, -0.073024, 0.025587, 0.169862, -0.147681, -0.040912, 0.112565, 0.037811, 0.068312, -0.018979, 0.179189, -0.369877, 0.096648, -0.224904, -0.013570, -0.201439, -0.176882, 0.031509, 0.059799, 0.021970, 0.090857, 0.048858},
    {-0.175681, 0.041570, -0.177014, -0.230147, 0.018866, -0.130515, 0.097411, 0.037069, -0.266663, -0.131899, 0.085673, 0.010309, -0.036915, -0.301719, 0.117132, 0.071990, 0.051931, 0.278307, -0.135193, -0.139559, 0.160158, 0.049895, 0.151269, -0.067781, -0.121866, 0.176789, 0.122960, 0.029659, 0.021208, -0.114589, 0.002918, -0.090308, 0.044557, -0.043186, 0.048283, -0.111823, 0.044569, 0.038382, -0.003188, 0.014114, -0.138275, 0.167966, -0.122746, 0.161425, 0.224997, 0.193715, 0.016905, 0.081661, -0.073994, -0.007733, 0.112319, 0.085406, 0.192005, -0.181829, -0.237897, 0.073100, -0.033127, -0.017209, -0.145375, 0.067308, -0.033633, 0.236784, 0.002430, -0.000921, -0.182364, 0.015833, -0.289667, 0.023152, -0.089063, -0.080429, -0.131371, 0.115016, -0.115470, -0.043085, -0.114802, -0.019347, -0.106519, 0.015495, 0.054370, 0.063394, 0.014570, -0.193721, -0.003818, -0.271940, -0.127581, -0.006047, 0.146727, 0.137286, -0.090524, -0.052913, -0.048692, -0.015185, -0.062827, -0.042204, -0.121839, -0.133118, 0.022962, 0.058722, 0.007080, 0.112820, -0.037689, 0.147105, 0.063042, -0.051937, 0.050494, 0.084876, -0.100721, -0.028800, 0.114208, 0.068484, 0.004248, 0.052586, 0.005831, -0.030555, -0.134094, 0.116682, -0.164648, 0.127583, 0.017012, 0.001361, -0.070938, -0.009996, -0.104695, -0.062890, 0.096449, -0.002999, -0.060515, -0.146888},
    {-0.162294, -0.359417, -0.019093, -0.018906, 0.029621, -0.214319, -0.125702, -0.043099, -0.150978, 0.120785, -0.038771, 0.083658, -0.196849, 0.090805, -0.276960, 0.093937, 0.009732, -0.041919, 0.097624, 0.053669, -0.256848, -0.190544, -0.229709, -0.241917, -0.000298, -0.115991, -0.027924, 0.048719, -0.050668, -0.109948, 0.046241, 0.226124, -0.003924, -0.086575, -0.390107, -0.056925, -0.010101, 0.257784, 0.105270, -0.203521, -0.149706, 0.155532, 0.045566, 0.094550, 0.186517, 0.140962, 0.049526, 0.046309, -0.076222, 0.085774, 0.186170, -0.058635, -0.028655, -0.123923, -0.068210, -0.102390, 0.119838, -0.038773, 0.166309, 0.096170, -0.095893, 0.112996, 0.298019, 0.009611, 0.104748, 0.025145, 0.033905, 0.194812, -0.043388, -0.065877, 0.040530, -0.109414, 0.042172, 0.067647, 0.112018, -0.008438, -0.005683, -0.013870, 0.179407, 0.101915, -0.052292, 0.105942, 0.088502, 0.048863, 0.080458, 0.049825, -0.115899, -0.058000, 0.027513, 0.070074, 0.120177, 0.114201, 0.024276, -0.148067, 0.037513, 0.005153, -0.150848, 0.211163, 0.086171, 0.127717, 0.146935, 0.045318, 0.069725, -0.091784, -0.024586, -0.217565, 0.060700, 0.059285, 0.200358, 0.069549, 0.125456, -0.213128, -0.021996, -0.057899, 0.184333, 0.135976, 0.101902, 0.114957, 0.057490, 0.060898, -0.075015, -0.097011, 0.104533, -0.194502, -0.010376, 0.007337, -0.063654, -0.024522},
    {-0.121891, 0.007287, -0.239216, -0.108070, -0.072366, -0.192879, 0.099800, -0.108961, 0.051948, 0.024505, 0.040640, -0.115080, 0.130897, -0.010750, -0.055660, 0.124457, -0.020168, 0.145786, 0.033851, -0.199422, 0.032640, -0.019257, 0.161975, -0.028642, 0.021965, 0.208621, -0.031252, -0.079346, -0.104363, 0.099278, 0.052447, 0.225541, -0.174404, 0.177776, -0.158397, -0.123315, -0.148838, 0.058599, 0.157394, -0.140579, -0.052541, 0.052764, -0.119693, 0.073399, -0.067122, -0.172344, -0.013634, -0.163810, 0.045529, 0.222873, 0.014726, -0.014044, -0.059882, -0.083040, 0.125035, -0.037943, -0.038387, -0.010902, 0.057957, 0.108856, -0.017097, -0.025100, 0.100457, 0.009129, 0.099842, 0.025173, 0.038301, 0.185023, -0.106559, -0.092548, 0.128073, 0.095680, -0.210765, 0.011550, 0.231629, 0.012393, -0.010119, 0.149174, -0.047361, -0.191431, -0.028842, -0.013991, 0.206281, 0.037177, 0.303877, -0.015246, 0.121427, 0.252155, 0.113439, 0.043245, -0.112180, -0.096452, -0.132069, -0.075642, 0.290530, -0.056254, 0.046028, -0.058358, 0.079834, 0.095604, -0.033511, 0.153863, -0.046007, -0.146589, 0.092379, 0.152723, -0.030350, -0.054790, 0.054519, -0.090099, 0.069332, -0.038983, 0.073761, -0.041415, -0.001867, -0.039660, 0.082261, 0.010529, 0.140040, -0.123572, 0.025308, -0.104550, 0.004809, 0.120777, -0.059591, 0.033328, -0.086003, 0.135367},
    {0.034569, -0.025932, -0.024127, 0.100828, 0.128527, -0.161963, 0.150213, -0.094838, -0.143014, -0.047775, 0.125632, -0.027943, -0.265381, -0.273935, -0.008862, 0.092531, 0.040582, -0.106288, 0.080320, 0.133528, -0.057123, 0.062259, -0.077915, 0.098124, 0.114098, 0.192006, -0.199178, 0.139316, -0.062525, -0.161042, -0.059043, -0.137821, -0.013573, 0.035872, -0.024644, -0.048544, -0.238259, 0.150557, 0.041828, 0.074338, 0.092215, 0.129678, -0.061295, -0.001370, 0.008204, -0.085352, 0.082401, 0.080554, 0.033570, -0.204535, 0.019580, -0.118455, 0.078652, 0.007939, -0.244635, -0.002840, -0.124984, 0.179521, -0.035359, -0.314898, -0.226663, -0.018826, -0.109441, 0.078422, 0.057162, -0.033694, 0.017029, -0.001601, -0.105520, -0.066927, -0.057500, -0.052765, -0.070992, -0.136174, -0.020597, 0.122399, -0.245413, 0.013930, -0.138253, -0.025724, -0.071415, 0.002677, 0.013149, -0.084610, 0.036583, -0.096006, 0.010664, 0.149289, 0.148186, -0.183154, -0.036180, 0.106858, -0.020446, 0.120966, 0.051741, -0.024890, 0.017966, 0.017436, -0.120631, -0.198470, 0.024028, -0.020544, -0.061223, -0.064947, -0.045522, 0.008607, -0.160395, -0.146546, 0.170130, 0.007961, -0.096506, -0.028387, -0.021491, -0.223206, -0.125873, -0.128508, -0.044841, 0.078876, 0.055535, -0.080995, 0.035773, 0.040260, 0.208653, -0.193999, 0.123101, -0.046481, 0.148485, -0.144925},
    {0.128282, -0.184614, 0.090434, 0.083364, 0.061797, 0.027883, -0.105428, -0.119375, 0.016196, 0.176413, -0.119260, -0.073749, 0.204618, 0.069212, -0.214189, -0.063554, 0.262516, 0.026213, -0.078492, 0.014317, -0.094613, 0.137656, -0.015166, -0.034134, -0.164278, -0.066777, 0.047861, -0.069187, -0.018546, -0.155111, -0.050631, 0.076822, -0.138651, -0.039346, -0.017046, 0.001452, -0.018296, 0.014773, -0.040205, -0.005390, -0.071718, -0.193503, -0.059173, 0.024560, 0.189465, -0.142983, -0.002055, -0.088903, 0.043207, 0.172052, 0.100474, 0.194281, -0.015432, 0.165032, -0.010248, -0.086607, 0.001957, 0.230549, 0.118074, 0.144928, 0.147273, -0.087114, -0.095730, 0.169751, -0.121592, 0.137133, 0.164568, 0.225287, -0.004380, 0.022412, -0.106850, -0.044029, 0.148272, -0.150347, 0.202009, -0.103668, -0.098713, 0.159894, 0.082933, 0.120606, 0.016922, 0.112108, 0.209274, 0.019517, 0.085689, -0.162721, 0.071365, 0.123392, -0.151239, 0.043648, 0.201402, -0.051102, 0.077804, -0.228126, 0.143239, -0.065605, 0.006269, 0.046629, -0.004320, -0.088581, 0.139283, -0.146641, -0.286581, -0.015580, -0.053641, -0.029887, -0.097319, -0.197629, 0.064459, -0.017064, -0.060837, 0.121866, -0.086693, 0.128915, -0.009211, 0.041362, -0.022325, 0.008313, 0.093898, 0.110934, -0.130389, 0.063705, -0.065214, -0.049101, -0.039010, -0.038483, -0.004757, -0.025154},
    {0.091406, 0.046710, 0.085674, -0.048609, 0.094993, -0.107042, 0.142282, 0.175911, -0.081508, 0.024300, 0.049131, -0.109053, -0.091798, 0.134149, 0.062255, -0.010222, 0.171108, -0.141392, 0.044438, 0.020799, -0.167913, 0.080596, 0.005263, -0.044552, -0.232976, 0.035734, -0.002764, -0.077265, 0.068602, 0.104997, 0.072897, -0.133311, 0.026246, 0.013981, 0.269757, -0.153984, 0.041391, -0.048945, 0.149435, 0.157472, -0.159304, 0.112816, -0.210002, -0.123619, -0.024380, 0.137264, 0.127008, -0.045214, -0.013637, -0.054976, 0.200346, -0.041243, -0.063374, 0.035120, 0.023719, 0.025927, -0.049950, -0.203016, 0.144710, -0.016706, -0.009395, -0.256493, 0.012243, -0.069292, -0.104359, -0.044493, 0.337480, 0.088413, 0.105329, -0.061386, 0.004785, -0.066761, 0.032213, 0.056079, -0.063247, 0.117169, 0.131436, 0.143792, -0.073021, 0.024165, -0.134487, 0.078394, 0.124311, 0.206968, -0.075657, -0.087186, -0.018050, -0.125531, 0.089847, 0.038234, -0.054363, -0.079992, 0.131550, 0.083030, -0.024509, 0.000499, 0.163175, 0.050671, 0.179840, 0.118551, -0.068280, -0.000158, 0.132052, -0.035986, -0.007024, -0.104026, -0.009132, -0.146733, -0.201965, 0.065558, -0.044082, -0.058021, -0.035982, 0.093917, 0.046029, -0.246245, 0.129000, -0.091963, 0.008434, 0.042647, 0.094653, -0.076624, 0.008775, -0.109279, 0.004287, 0.148788, -0.040315, 0.222476},
    {0.093090, 0.230569, 0.111664, -0.234097, 0.086192, 0.029642, -0.235615, 0.097206, -0.086233, -0.024165, -0.142834, 0.040437, -0.077263, 0.084038, -0.012443, 0.085888, -0.041346, -0.053263, 0.063742, 0.023614, -0.067825, 0.020194, 0.033772, -0.071370, -0.080299, -0.071853, -0.068547, 0.015110, -0.097110, -0.198501, -0.124690, 0.022778, 0.016519, -0.031158, 0.142879, -0.007258, -0.053784, 0.039985, -0.068871, -0.089361, -0.080228, -0.094628, 0.153214, 0.181486, 0.075141, 0.099044, -0.119217, -0.206674, -0.037752, -0.047255, -0.010710, -0.008544, -0.019639, -0.199991, -0.045373, 0.149136, -0.040526, 0.034373, 0.034211, 0.054582, -0.118563, -0.072808, -0.011972, 0.127988, 0.219352, -0.083386, -0.108651, 0.000688, 0.174173, -0.032345, -0.029667, -0.151173, 0.168913, 0.091341, -0.062266, -0.253918, 0.188110, -0.072153, -0.077786, -0.054009, 0.045746, -0.126719, 0.091082, 0.048661, 0.069162, -0.138984, 0.053551, -0.233744, -0.063330, -0.052005, -0.175350, 0.055176, -0.223290, 0.119168, 0.108764, -0.056299, -0.023235, -0.008779, -0.158124, 0.155551, 0.050129, 0.072008, 0.039759, -0.047042, 0.064571, 0.100118, 0.012305, -0.018824, 0.050314, 0.064296, 0.015236, 0.069782, 0.018674, -0.170445, 0.000317, 0.027642, -0.250448, -0.051679, 0.023415, 0.156350, -0.087237, -0.020672, -0.334986, -0.158012, -0.274800, -0.066092, -0.108707, 0.002052},
    {0.167693, 0.078335, 0.108117, 0.005392, -0.161418, -0.009066, 0.210430, -0.028334, -0.166494, -0.051079, -0.061592, -0.035127, -0.186264, 0.176454, 0.154708, 0.033115, 0.064483, 0.108120, -0.186001, 0.029767, -0.030391, -0.013920, -0.099930, -0.243243, 0.056181, 0.054352, -0.259917, 0.101393, -0.001531, 0.047347, -0.149936, -0.289154, -0.026670, 0.100761, 0.356807, -0.027935, 0.079823, -0.036701, -0.163077, 0.056742, -0.053939, 0.125373, -0.008490, -0.052122, -0.077458, -0.025957, 0.015680, 0.159805, -0.034632, 0.240573, -0.087789, -0.187881, -0.143415, -0.123151, 0.011724, -0.038538, 0.145551, -0.116659, 0.164214, -0.014020, -0.122237, 0.115014, 0.094697, -0.031156, -0.110418, 0.006366, 0.011358, 0.177317, 0.089376, 0.007825, 0.004670, -0.058235, 0.095069, -0.101557, -0.047067, 0.108888, 0.124646, -0.102813, 0.078300, 0.035897, 0.119528, 0.088660, 0.065443, -0.355662, 0.067320, 0.075624, 0.163420, -0.331729, 0.034544, -0.060889, 0.009352, 0.015528, 0.138659, -0.115889, 0.214932, -0.039950, 0.021685, 0.022629, -0.099328, 0.137705, -0.053849, 0.100498, 0.091126, 0.080739, -0.236612, 0.154812, -0.041814, -0.044037, -0.206294, -0.090978, -0.129597, -0.033170, -0.041461, -0.018317, -0.101452, 0.154856, -0.246438, 0.235630, 0.008735, 0.157758, -0.258899, -0.158508, 0.061617, 0.054100, 0.063445, -0.109575, 0.020198, 0.182398},
    {-0.196017, -0.032898, 0.032530, -0.094155, -0.040765, -0.029898, -0.005365, 0.006371, -0.171321, -0.095838, -0.092419, 0.044429, -0.009963, -0.315425, -0.059706, -0.133626, 0.016817, 0.148772, 0.118788, 0.218048, -0.214960, 0.076454, -0.002988, 0.047780, -0.133475, 0.047414, 0.110775, 0.002596, 0.011579, -0.110113, 0.172984, -0.119139, -0.008342, 0.034205, 0.001542, -0.112859, -0.262782, -0.109039, -0.125936, -0.156996, -0.061141, 0.046790, 0.205034, 0.081014, 0.105412, 0.103857, -0.109245, 0.158854, 0.079382, -0.067113, -0.017177, -0.061613, -0.100964, 0.016788, 0.078290, 0.076382, 0.064471, -0.120051, -0.095793, 0.112761, -0.187591, -0.040294, 0.246144, 0.113242, 0.029486, -0.042331, -0.160672, -0.120940, 0.138777, 0.038798, 0.135421, 0.221358, -0.043117, 0.159916, 0.115595, -0.283103, -0.134532, -0.095977, -0.055706, 0.187430, -0.119999, -0.105215, -0.217831, 0.145984, 0.036371, -0.229689, 0.045834, -0.183149, 0.033150, -0.139915, -0.017587, -0.013685, -0.075398, 0.171778, -0.006621, -0.233388, -0.204099, -0.059988, 0.086709, -0.079990, -0.096404, -0.050123, -0.105840, -0.009944, 0.007547, -0.117313, -0.116075, 0.006266, -0.147153, 0.030632, -0.021480, -0.026047, -0.095598, 0.142826, 0.095175, 0.122532, -0.202247, -0.170312, -0.110376, 0.106595, 0.064544, -0.025992, 0.128881, -0.217747, -0.025653, 0.020796, 0.056481, -0.124401},
    {-0.065189, -0.043749, -0.021012, 0.034938, -0.028171, 0.138076, -0.057423, 0.116476, 0.118800, 0.132554, -0.159001, 0.107224, -0.014565, -0.073026, 0.100072, -0.111474, 0.006143, -0.071328, -0.008609, 0.050937, 0.018126, -0.136058, -0.022258, -0.103821, -0.028739, -0.132443, 0.116704, -0.118459, -0.073812, 0.187539, -0.065454, 0.256116, -0.082942, 0.097294, 0.086375, 0.039609, 0.089857, -0.076415, 0.029060, 0.225360, 0.151066, 0.205305, -0.061278, -0.028351, 0.009410, -0.023563, -0.203846, -0.022209, -0.109096, -0.004420, -0.066835, -0.026120, -0.155481, 0.084874, 0.186213, -0.139153, 0.077698, 0.039766, 0.196886, -0.232774, 0.078714, 0.048140, 0.037588, 0.180081, -0.143160, -0.319519, -0.149261, -0.190094, -0.096617, -0.047475, 0.136104, 0.126236, 0.025003, -0.093408, -0.301578, 0.100569, 0.018299, -0.130602, 0.045733, -0.001164, 0.019196, 0.167217, 0.100174, 0.129162, 0.076686, -0.140891, 0.032830, -0.059636, -0.067860, 0.044547, 0.100758, -0.058843, -0.033964, 0.147517, 0.121510, 0.013737, -0.065740, -0.034138, -0.032221, 0.145498, -0.111931, -0.189530, -0.013474, -0.051005, 0.072377, -0.032381, -0.036493, -0.042689, -0.025383, -0.061729, 0.062203, 0.117214, 0.077860, 0.029361, 0.030685, 0.018838, 0.064766, -0.014033, -0.043809, 0.132656, 0.117106, -0.042733, -0.037870, -0.135991, -0.037426, 0.053653, 0.057010, -0.134412},
    {0.045098, 0.087807, -0.039551, -0.070861, 0.017666, 0.162133, 0.242464, 0.078160, 0.050097, 0.033075, -0.017032, 0.187184, -0.001243, 0.115842, -0.164971, -0.020292, -0.159715, 0.137273, 0.034775, 0.016958, -0.042976, -0.139365, -0.000882, -0.151779, 0.057056, -0.192266, 0.081568, 0.054390, 0.143742, -0.174086, -0.019069, -0.159913, 0.187845, 0.069999, -0.068261, 0.211451, 0.105566, 0.110878, -0.027353, 0.122250, 0.049693, 0.202117, 0.023141, 0.126785, 0.085651, -0.206292, 0.102925, 0.064088, 0.254813, -0.011558, 0.057061, -0.175822, 0.101345, -0.079620, -0.010235, 0.028464, 0.048838, -0.269217, 0.060768, 0.042126, 0.033581, -0.101692, -0.214474, 0.054439, -0.202264, -0.114959, 0.222629, 0.113864, 0.106967, 0.002783, -0.062101, 0.001811, 0.023307, 0.072399, 0.017028, 0.127588, -0.008386, 0.011910, -0.093243, 0.172288, 0.204891, 0.001313, -0.088941, -0.213528, -0.020896, 0.060640, -0.110671, -0.117639, 0.058550, -0.063023, 0.164475, 0.084015, 0.167038, 0.005035, -0.243165, 0.046660, -0.159091, -0.017649, -0.085040, 0.043443, -0.001841, -0.023820, -0.046068, -0.086865, -0.045739, 0.095316, 0.064127, -0.221148, -0.037581, -0.141068, -0.102160, 0.174843, 0.061924, -0.063764, -0.137303, -0.166174, 0.068633, -0.214444, -0.158675, 0.034922, -0.038476, 0.058780, -0.179237, -0.153607, -0.000280, -0.202283, -0.127298, -0.075181},
    {0.083739, 0.056974, 0.059518, 0.098319, 0.050828, -0.152429, 0.054057, -0.210536, 0.039087, 0.082050, -0.019723, -0.103621, 0.225704, 0.092506, 0.224346, -0.048765, -0.084019, 0.029503, 0.027081, 0.023673, 0.213149, -0.010182, 0.055960, -0.039031, -0.117771, -0.074116, 0.186145, 0.011306, 0.097271, 0.068676, -0.235600, 0.109114, -0.112265, -0.018368, -0.039144, 0.033564, 0.089758, -0.052495, -0.135107, -0.153996, -0.212072, 0.006305, 0.178635, -0.035407, -0.075253, -0.026064, -0.071581, 0.088981, -0.051333, 0.084472, 0.006746, 0.077928, -0.119293, -0.167703, 0.028168, 0.077988, -0.025247, 0.069930, -0.051981, -0.071909, 0.056980, 0.071527, 0.147803, -0.152844, 0.095685, 0.073683, 0.051597, -0.079336, 0.026521, 0.030520, -0.037110, -0.011431, -0.153556, 0.001135, -0.083444, -0.022617, -0.035096, 0.131626, -0.025707, 0.008172, 0.107220, -0.194616, 0.058975, -0.029966, 0.142777, 0.086139, 0.021141, 0.012716, 0.291857, 0.090354, -0.186091, -0.082521, 0.132328, 0.055853, 0.130249, -0.046513, 0.125468, 0.072505, 0.007242, -0.153178, -0.045323, 0.199858, 0.077978, -0.033087, -0.148420, 0.049173, -0.057221, -0.001770, 0.071035, -0.071027, -0.020653, -0.167710, -0.203914, -0.104450, -0.138075, 0.026238, -0.022804, -0.095756, -0.091332, 0.125946, 0.198720, 0.099055, 0.004578, 0.008396, 0.032089, -0.023170, -0.126947, -0.156557},
    {0.076185, 0.024679, -0.032475, -0.198216, -0.028642, -0.076674, -0.290069, 0.043994, -0.059638, -0.119554, 0.012275, 0.130391, -0.001595, 0.165843, 0.022397, -0.016977, -0.004509, -0.104429, 0.108500, 0.037369, 0.044850, 0.000798, -0.030065, 0.077310, 0.041038, 0.075422, -0.162725, -0.195909, 0.163436, 0.026004, 0.014811, 0.105882, -0.078022, -0.115922, -0.081764, -0.073016, 0.082797, 0.036749, -0.004454, 0.195756, -0.204397, -0.054946, -0.147112, -0.256128, 0.075361, -0.143460, -0.077597, 0.002330, 0.022027, 0.057778, -0.124225, 0.024099, 0.069107, -0.089907, -0.077705, 0.127264, -0.019698, 0.013813, -0.055246, -0.110683, 0.033040, 0.096761, -0.112640, -0.064152, -0.123575, -0.016213, 0.138239, -0.204860, 0.002499, 0.001152, -0.161039, 0.057851, 0.065753, 0.185538, 0.040000, -0.046050, 0.101580, -0.001428, -0.278031, -0.056489, -0.055192, 0.101383, -0.001778, -0.027587, 0.041284, 0.096443, -0.059936, 0.155758, 0.037902, -0.197012, -0.014472, 0.047097, -0.027125, 0.117141, 0.175242, -0.037195, -0.120326, -0.100073, 0.153566, -0.031062, 0.010646, 0.098250, -0.209300, -0.035882, 0.154816, 0.172894, -0.111283, -0.022001, -0.107887, -0.048335, -0.095002, -0.071051, -0.059868, 0.090133, -0.093094, -0.090460, 0.262485, 0.111850, 0.135771, 0.053085, 0.085606, -0.157733, -0.209561, 0.118016, 0.070982, -0.122445, 0.039713, -0.064599},
    {-0.064989, -0.058322, -0.131187, 0.023479, 0.046970, 0.094815, 0.049940, 0.128736, -0.055023, -0.042595, 0.034711, -0.191422, 0.147377, -0.100988, -0.025150, -0.004551, -0.031574, -0.097743, 0.064918, 0.215231, -0.018265, -0.051966, 0.185500, 0.094657, 0.046358, -0.018670, -0.002076, 0.081124, -0.024975, -0.204015, 0.200301, 0.073400, -0.096553, -0.010768, -0.088602, -0.002904, -0.147394, -0.069147, -0.095881, 0.080011, -0.043496, -0.017072, -0.005173, 0.175767, 0.118548, -0.002733, -0.054726, 0.024470, 0.032500, -0.227378, 0.008702, -0.286278, 0.233194, 0.058359, 0.016634, -0.116465, -0.046026, -0.006863, 0.216394, -0.203299, -0.108221, 0.187223, -0.098791, 0.023068, -0.164539, 0.032116, 0.075140, 0.201766, 0.085465, -0.063646, 0.002718, -0.207507, -0.017167, -0.117824, -0.185369, -0.038151, 0.028650, -0.002637, -0.043900, 0.088576, -0.129593, -0.118206, -0.018194, -0.104165, -0.041747, -0.247924, -0.070633, -0.153972, 0.185263, 0.081328, -0.194960, 0.015622, -0.136775, 0.140420, 0.196881, 0.039258, -0.023342, -0.116868, -0.147965, -0.088100, 0.017938, -0.016469, 0.084506, 0.218179, -0.130333, 0.067338, 0.027631, -0.069506, 0.078763, -0.143993, -0.025431, -0.159175, 0.077101, 0.068799, 0.117053, -0.012484, 0.036371, 0.050565, 0.043904, 0.221574, -0.189409, 0.062593, -0.261766, -0.050208, -0.001645, 0.162963, 0.053544, 0.156956},
    {-0.026539, -0.027771, -0.168378, -0.212358, 0.067548, 0.036388, -0.046357, 0.114035, 0.121697, -0.013600, -0.010475, 0.010282, -0.086866, 0.024761, 0.012615, 0.172099, 0.145088, 0.019898, -0.022271, -0.095987, -0.145793, 0.139910, -0.133656, 0.004516, -0.100807, -0.082773, -0.048063, 0.023110, -0.070660, 0.010647, 0.160150, 0.098990, 0.042175, 0.088037, -0.071350, 0.103702, -0.060136, 0.129940, -0.046079, -0.016716, 0.062303, -0.124933, -0.119454, -0.149044, 0.031320, 0.060534, 0.106958, 0.023923, 0.042637, 0.036470, -0.034135, -0.092167, -0.087497, 0.092915, -0.144380, -0.145344, -0.030774, -0.172524, 0.070172, -0.124254, -0.132342, 0.073723, 0.198928, 0.032357, 0.048288, -0.031505, 0.018951, -0.005880, -0.064422, -0.079504, -0.091007, 0.032445, 0.039152, -0.053516, 0.088928, 0.157256, 0.035117, 0.199092, -0.089160, -0.125243, 0.055171, 0.178723, 0.228714, -0.129902, 0.060554, 0.140223, -0.170250, 0.044615, 0.000763, -0.048049, 0.106894, -0.107471, 0.022419, 0.023793, 0.020424, 0.003578, 0.104444, 0.051735, 0.013331, -0.097032, -0.161206, -0.064122, 0.021144, -0.193841, -0.083571, 0.125743, -0.211588, -0.083073, 0.026925, 0.011042, -0.165924, 0.051704, 0.003846, 0.077481, -0.003338, -0.024591, 0.052309, -0.138728, -0.020146, -0.071257, -0.268490, 0.089318, 0.034902, -0.161983, 0.192828, 0.281104, -0.042534, 0.079997},
    {0.103001, -0.209176, 0.154507, 0.038247, 0.086228, 0.106436, 0.183467, 0.190947, 0.188287, 0.171984, 0.096482, 0.097710, -0.105397, -0.014796, 0.126251, 0.078583, -0.015834, 0.022196, -0.060720, -0.159356, 0.107593, -0.207102, -0.086040, 0.008639, -0.017078, -0.003655, 0.055458, -0.059232, -0.040906, -0.032502, 0.096459, 0.071657, 0.073925, -0.243722, -0.163887, 0.017483, 0.019591, -0.022981, -0.148368, 0.009207, 0.067020, -0.002004, -0.110457, 0.077351, 0.043522, -0.057822, -0.095505, -0.077390, 0.091794, -0.061559, 0.224919, 0.050976, 0.044787, 0.018469, -0.050928, 0.055022, -0.123719, 0.132626, -0.074547, -0.093054, 0.069238, 0.130613, 0.025750, 0.225977, 0.000113, 0.089744, -0.001223, -0.265767, 0.007035, 0.097048, -0.088491, -0.049386, 0.020681, -0.056120, -0.188914, 0.063268, -0.191509, 0.149314, 0.060562, -0.138501, -0.146901, -0.061748, -0.092392, -0.089444, 0.126053, 0.102905, 0.039111, 0.170342, -0.061092, -0.134948, -0.158986, -0.083361, -0.027262, 0.021999, 0.020694, -0.158431, -0.044788, 0.020350, 0.106190, 0.079959, 0.010334, -0.060569, 0.250790, 0.159958, -0.108419, -0.099581, 0.012125, 0.029311, 0.135263, 0.095019, 0.144438, 0.262060, 0.040312, -0.049721, -0.064652, -0.058884, 0.082361, 0.029820, 0.075517, -0.008557, 0.001255, 0.000023, 0.094090, -0.052689, 0.005032, -0.029751, -0.172796, 0.119672},
    {-0.081260, -0.058508, -0.040282, -0.165278, -0.084741, -0.137816, 0.060845, 0.123955, -0.116559, -0.030201, 0.108842, 0.035586, 0.131843, 0.171744, 0.035013, -0.246505, 0.059825, 0.069099, -0.122656, 0.165829, -0.084786, 0.088724, 0.085937, 0.018118, -0.084443, -0.027028, -0.120349, 0.153151, -0.298498, -0.168468, -0.001929, 0.038052, 0.082169, 0.046947, 0.091246, 0.220533, 0.048791, -0.058287, 0.193883, -0.011624, 0.071211, 0.041186, 0.115024, 0.036917, -0.079885, -0.076764, -0.090564, 0.209478, 0.173471, -0.056448, 0.024774, 0.050177, 0.198027, -0.103815, 0.073602, 0.034902, -0.098666, 0.069559, -0.168979, 0.188278, -0.309695, -0.078965, -0.212001, 0.040461, 0.112799, 0.089291, 0.046536, -0.104939, 0.057422, -0.074118, 0.000505, -0.091710, -0.064668, -0.140087, 0.128201, 0.040872, -0.092188, -0.091793, -0.170107, 0.147443, 0.068231, -0.068916, 0.128834, 0.115301, 0.172598, -0.207708, -0.129649, -0.158606, 0.012638, -0.162332, -0.035556, -0.061295, -0.019513, -0.039075, 0.080153, -0.074227, 0.095366, 0.091743, -0.116796, 0.081707, -0.214757, -0.098189, -0.030284, 0.154614, -0.066909, -0.064441, -0.096801, 0.098770, -0.033922, -0.061781, 0.039042, -0.053458, 0.043380, 0.009026, 0.064472, -0.195074, 0.219771, -0.202614, -0.197964, 0.096432, -0.037552, 0.044275, -0.145312, 0.090432, 0.010115, -0.057367, 0.156449, 0.300794},
    {0.082887, 0.078004, -0.098870, 0.125770, 0.044537, -0.113809, -0.174857, 0.036906, -0.183484, 0.042613, 0.053170, 0.125196, 0.042363, -0.057316, 0.064098, -0.154114, -0.031697, -0.060315, -0.081162, -0.276613, 0.022569, 0.125516, 0.109865, -0.000467, -0.014077, -0.017775, 0.090149, 0.042859, -0.131618, -0.138821, -0.009496, 0.152892, -0.030114, -0.026394, -0.151422, -0.030766, -0.042727, 0.048183, -0.228024, 0.039851, 0.174993, 0.180670, 0.222335, 0.112022, 0.045867, 0.175818, -0.221025, 0.046768, -0.091822, 0.188384, -0.054760, 0.143827, -0.191697, -0.015764, 0.034605, -0.314197, -0.016230, -0.064680, -0.113493, 0.087969, 0.014690, -0.026114, -0.020472, -0.047349, 0.088805, -0.125187, 0.012783, -0.075296, 0.043068, -0.198801, -0.048367, -0.009875, 0.024746, 0.067171, -0.124416, -0.133215, 0.097915, 0.068376, -0.015739, -0.104141, 0.018237, 0.135410, -0.002518, 0.130022, 0.014852, 0.078798, 0.027674, -0.128731, 0.019619, 0.022912, 0.006535, -0.003388, 0.043373, -0.058557, 0.288226, -0.151423, -0.035336, 0.062265, -0.062072, -0.112693, 0.014724, 0.119788, 0.020889, 0.053623, -0.065032, 0.031114, -0.066039, 0.243013, 0.061270, 0.008291, 0.050526, -0.103552, 0.007772, -0.041354, -0.040979, 0.143337, -0.245178, 0.257188, 0.043900, -0.130048, 0.089725, -0.020561, 0.161385, -0.032112, 0.020384, -0.041570, -0.246973, -0.052535},
    {0.207973, 0.172328, -0.379233, -0.036667, 0.007080, 0.281248, -0.009267, -0.208748, 0.136282, 0.068336, -0.068259, 0.184670, 0.027927, 0.084177, 0.068264, 0.108405, -0.004347, 0.039144, -0.015638, 0.157218, 0.090421, -0.002615, -0.158023, -0.066521, 0.013347, 0.172749, 0.225478, 0.025262, 0.091736, -0.137650, 0.100580, -0.250735, 0.043206, -0.055760, -0.076079, 0.072449, 0.066492, -0.142546, -0.101088, -0.001043, -0.020918, 0.118573, -0.093107, 0.029062, -0.109080, 0.035662, 0.062592, -0.039272, 0.059339, -0.134623, -0.026565, -0.144931, -0.095149, 0.070985, 0.058901, -0.052145, 0.004062, -0.080760, -0.008832, -0.370643, 0.128640, 0.094314, 0.117102, 0.158837, 0.058794, -0.076413, -0.011688, 0.029729, -0.042811, -0.001762, 0.070394, 0.207836, -0.171904, 0.105704, 0.016585, -0.153978, 0.054198, -0.114515, 0.001593, -0.097974, 0.166969, 0.157896, 0.167765, 0.008346, -0.107981, -0.030809, -0.053990, -0.049796, -0.216039, -0.018392, -0.173752, 0.099434, 0.088829, -0.067522, 0.000165, 0.103889, -0.239328, 0.010612, -0.128393, -0.051987, -0.057697, 0.232929, -0.124050, -0.116075, 0.105185, -0.003103, 0.037450, 0.058469, 0.067457, -0.082635, 0.119455, -0.141596, 0.156675, 0.111335, -0.061918, 0.184686, -0.105317, -0.099369, 0.269698, 0.064275, -0.057074, 0.089155, -0.039656, 0.007639, 0.159579, 0.008833, -0.162208, 0.280729},
    {0.212630, 0.040426, -0.093334, -0.084742, 0.066631, 0.043576, 0.093942, -0.207868, 0.077240, 0.150553, 0.088892, -0.012096, 0.150238, 0.060714, -0.013028, 0.095115, -0.024278, -0.030491, 0.205294, 0.197952, 0.033142, 0.025966, 0.299578, 0.171016, 0.122203, -0.135746, 0.056794, -0.224433, -0.047501, -0.111747, -0.003892, 0.177904, 0.100154, 0.110727, -0.073782, -0.012128, 0.002999, 0.092562, -0.083625, -0.063790, -0.200422, -0.104252, 0.083493, 0.242079, 0.154048, 0.155913, -0.223392, -0.127674, -0.033972, -0.098373, 0.221102, 0.051701, 0.028790, 0.276745, 0.088826, -0.121884, -0.046170, -0.097371, 0.000605, -0.148124, -0.201155, -0.023762, -0.089049, 0.149199, -0.212246, 0.044534, -0.110457, -0.056955, 0.116180, -0.020459, 0.014205, -0.019988, -0.007654, 0.074601, -0.088772, 0.145371, -0.066563, 0.082750, -0.046084, 0.060166, -0.130389, -0.204560, -0.094377, -0.123139, 0.219092, -0.158890, -0.043388, -0.070222, 0.045061, 0.119241, 0.127366, -0.014565, -0.238894, -0.020673, 0.072221, 0.041685, 0.036459, -0.083852, 0.088255, -0.230847, -0.081427, -0.126053, 0.018935, 0.029988, -0.055966, 0.040674, 0.046983, 0.010155, 0.052637, -0.003951, 0.252502, -0.106663, -0.231914, -0.007083, 0.140214, -0.044208, -0.191123, 0.091253, -0.102544, 0.125850, -0.002003, 0.069837, 0.024502, -0.003280, 0.086354, -0.000128, 0.013158, -0.001037},
    {-0.154693, -0.119393, 0.185929, 0.008026, 0.030997, -0.065273, -0.040776, 0.194608, 0.060304, 0.001941, 0.046042, -0.103908, -0.075148, -0.157748, 0.071726, -0.046658, 0.044527, -0.046555, -0.217446, -0.130708, 0.076213, 0.100296, -0.198076, 0.115819, 0.166335, -0.085393, 0.020916, 0.021188, 0.202579, -0.065911, 0.140467, -0.048880, -0.088347, 0.060616, -0.064017, 0.045646, -0.052920, 0.035352, -0.119192, 0.158941, -0.224635, -0.150188, -0.107455, 0.170228, 0.133229, -0.271748, 0.225777, 0.123177, -0.071894, -0.126377, 0.114242, -0.125432, 0.026242, 0.014665, 0.131133, 0.101933, 0.147567, 0.043260, 0.084974, -0.108348, 0.207092, 0.145867, -0.051437, 0.000887, 0.155178, -0.023472, 0.025917, -0.152330, -0.153600, 0.004191, 0.061536, -0.097974, 0.047333, 0.017608, 0.026574, -0.024352, -0.033261, 0.060348, 0.054021, -0.125939, -0.155710, 0.110074, 0.064941, 0.042249, -0.178388, 0.023949, -0.018042, 0.049695, -0.117203, -0.070794, -0.154373, -0.016623, -0.012919, 0.135855, -0.122753, 0.017572, -0.041876, -0.063560, 0.010497, -0.143443, 0.168604, 0.094712, 0.002537, 0.190286, -0.097996, -0.276558, 0.005108, 0.000970, -0.131380, 0.096781, 0.074787, 0.054110, 0.104501, -0.027663, -0.056453, 0.025013, 0.022411, 0.204816, 0.006755, 0.179839, -0.026644, 0.059557, 0.070809, -0.051956, -0.180035, 0.094963, 0.130054, 0.066818},
    {0.069939, 0.011877, 0.167738, 0.026237, -0.000437, -0.159977, -0.040916, 0.073319, -0.095636, 0.002275, -0.106599, -0.018151, -0.050642, 0.039563, -0.113484, -0.132322, 0.137496, -0.078093, -0.000923, -0.040685, 0.185060, 0.020683, -0.051677, 0.023654, 0.210318, 0.004515, -0.248725, 0.107707, -0.027520, -0.246093, 0.329615, 0.053315, -0.075952, -0.008647, -0.038433, -0.092303, -0.040763, -0.003675, 0.180188, 0.008411, 0.135791, 0.077175, 0.079108, -0.015481, -0.024871, 0.111413, 0.191398, -0.116398, -0.146641, 0.078871, 0.104283, 0.141966, -0.155157, -0.027635, -0.098804, 0.025790, -0.002977, -0.248385, -0.017045, -0.009997, -0.032542, 0.055142, 0.060327, -0.081098, -0.079177, -0.095420, 0.251222, 0.178770, 0.062202, -0.087896, -0.108797, 0.319856, 0.081086, 0.134258, -0.007964, 0.126922, -0.004705, 0.001692, 0.099308, 0.235303, -0.016082, 0.022583, 0.023691, 0.036459, 0.136350, 0.139262, -0.015299, -0.027182, 0.109265, -0.051830, -0.004079, -0.009520, -0.119051, -0.283592, 0.031182, -0.145780, 0.101508, 0.124412, -0.029694, 0.019013, 0.057677, 0.157094, 0.032179, -0.114548, 0.037645, -0.055650, -0.025781, -0.250797, -0.093172, 0.097488, 0.009794, -0.036056, 0.030771, -0.043920, -0.031095, 0.134718, -0.048437, -0.014653, 0.006576, 0.013179, -0.278726, 0.093128, -0.006820, -0.000278, -0.018405, 0.220805, 0.066936, -0.003545},
    {-0.025802, -0.024752, 0.007410, -0.019656, -0.011069, 0.077127, -0.043186, -0.129575, -0.246468, -0.018167, -0.121965, 0.044674, -0.050787, 0.008701, -0.052815, -0.120284, -0.022940, -0.116130, -0.004411, 0.110684, 0.074453, -0.009603, 0.105764, -0.103136, 0.124683, 0.155077, -0.289556, 0.037167, -0.058341, 0.249868, 0.038884, 0.085054, 0.291533, 0.028141, -0.097001, 0.192307, 0.178081, 0.258138, 0.028836, -0.150069, 0.114997, 0.026931, 0.078202, 0.166051, -0.111665, -0.279589, -0.167833, 0.186238, 0.014315, 0.005545, 0.019404, 0.211263, 0.055460, 0.410829, -0.112285, 0.145175, -0.017446, 0.010762, 0.092154, 0.036757, -0.047499, -0.021622, 0.056922, 0.192735, 0.009439, -0.145705, 0.149251, 0.147341, -0.167099, -0.019248, 0.131370, -0.043682, -0.086909, 0.084486, -0.144056, -0.006191, 0.029464, -0.013215, 0.037659, 0.263197, -0.089173, 0.022567, -0.217868, 0.065497, 0.004086, -0.011462, 0.016972, 0.025566, -0.050421, 0.145617, 0.093797, -0.254101, -0.062509, 0.107347, 0.019785, -0.140466, 0.128967, 0.159374, 0.150139, 0.012516, -0.063143, -0.030148, -0.294715, 0.005764, -0.067914, -0.114007, -0.128368, -0.037840, 0.113005, 0.110004, 0.069693, -0.053119, -0.002770, 0.199077, 0.001028, -0.017120, -0.084442, -0.038409, 0.001418, -0.000324, 0.283386, 0.098740, 0.081988, -0.075839, -0.074500, 0.000387, -0.091064, -0.034350},
    {0.075289, 0.071710, 0.195165, 0.145586, -0.090381, -0.014394, 0.056589, 0.164118, 0.087571, 0.076127, 0.024081, 0.161416, 0.155373, 0.190710, 0.371221, 0.012042, -0.043349, -0.022529, -0.100209, -0.044126, 0.090637, 0.012255, 0.068102, -0.166080, -0.053758, -0.108894, -0.105873, -0.138129, 0.270643, 0.124145, -0.123505, 0.056529, -0.017265, 0.125535, 0.124602, 0.096513, -0.116130, -0.116419, -0.096515, -0.143076, 0.069449, 0.007297, 0.031142, -0.093354, -0.165689, 0.109518, 0.007272, -0.082255, 0.098915, -0.015263, 0.092915, 0.006500, -0.086593, 0.033391, 0.224209, -0.029749, 0.060875, -0.213412, -0.335894, -0.030760, -0.060714, -0.078435, -0.074634, 0.034227, 0.075212, 0.052263, 0.019850, 0.059421, 0.166672, 0.036428, -0.280072, 0.207000, -0.011424, -0.108761, -0.107321, -0.040720, 0.190979, -0.189295, 0.022478, 0.238999, -0.105134, -0.041913, -0.058580, 0.006001, 0.090489, 0.099546, 0.023090, 0.137387, -0.078937, 0.159109, -0.106407, -0.080914, -0.106607, -0.038746, 0.179055, -0.001049, 0.043824, -0.018631, 0.008145, 0.020515, -0.064483, -0.117817, 0.004671, 0.006790, -0.093939, -0.167496, -0.026036, 0.046748, -0.088951, 0.042182, 0.031849, 0.044150, -0.104667, 0.007779, 0.151458, 0.172423, 0.096641, -0.068330, -0.007734, 0.222934, -0.118865, -0.026389, -0.107580, -0.004513, -0.029263, 0.414755, 0.104604, -0.044951},
    {0.045101, 0.074895, -0.137824, 0.033597, 0.129171, -0.077081, -0.222303, -0.171527, 0.111838, 0.100671, -0.001881, 0.098644, 0.034819, -0.174745, -0.080854, 0.030140, 0.022898, -0.183610, 0.239868, 0.025892, -0.089912, 0.071667, -0.115752, 0.053654, 0.077856, 0.080493, 0.114705, 0.119393, -0.207359, 0.122959, -0.123841, 0.153537, 0.038448, -0.113276, -0.063832, 0.195917, 0.022061, 0.207234, -0.070724, -0.015481, 0.002688, 0.072502, -0.122195, -0.201548, 0.052756, 0.040989, 0.085633, 0.137285, 0.195105, -0.042480, 0.062093, -0.019534, -0.056367, 0.103137, -0.071662, -0.068081, 0.085181, -0.125627, 0.146605, -0.244971, -0.108141, -0.154139, 0.048634, -0.012883, 0.067813, -0.199354, 0.060586, -0.019765, -0.102414, -0.071083, -0.217753, 0.041999, 0.089342, -0.100563, -0.228465, 0.031833, 0.147864, 0.038876, 0.134384, -0.086288, 0.211749, 0.082029, 0.103403, -0.015113, -0.015106, 0.025291, -0.021240, 0.086702, 0.021586, 0.154397, -0.007928, 0.061314, 0.092838, 0.027459, -0.255698, -0.029315, -0.018918, -0.005710, 0.108063, -0.141590, 0.073837, 0.036924, -0.046856, -0.092374, -0.021349, -0.142013, 0.081449, 0.106025, -0.062638, -0.147153, -0.186372, -0.049471, -0.116916, 0.024234, -0.034404, 0.095931, -0.005653, -0.044083, 0.015594, -0.047584, 0.064093, 0.045596, 0.065754, -0.012696, -0.113890, -0.012598, -0.174677, 0.078556},
    {0.072123, -0.012611, 0.016829, -0.099161, 0.140747, 0.153703, -0.074521, 0.005959, -0.039791, 0.047997, 0.252807, 0.220820, -0.109769, 0.231039, -0.205786, -0.038642, 0.015534, -0.092839, -0.279740, -0.046369, -0.140085, -0.115023, -0.242836, 0.155504, 0.003740, 0.152763, 0.150120, -0.026133, -0.221267, 0.190927, -0.172476, -0.071540, 0.025380, 0.048920, -0.114265, 0.157514, 0.131461, -0.188941, 0.014121, 0.059254, -0.054865, -0.079914, -0.332047, -0.035769, 0.165716, 0.013724, -0.065430, 0.081917, -0.116076, -0.172992, -0.026517, -0.187330, -0.135526, -0.044588, 0.315855, -0.114282, 0.121290, -0.031142, -0.154662, 0.046898, 0.007093, 0.063307, -0.022717, 0.052013, 0.064702, -0.153852, 0.113107, 0.017760, 0.222384, -0.037633, -0.077985, 0.013803, 0.102081, 0.083095, 0.065283, 0.069649, 0.014509, 0.007754, 0.074438, -0.049421, 0.130193, -0.315322, -0.099475, -0.037354, -0.195275, 0.161722, -0.308605, -0.080219, -0.090609, -0.049266, 0.030805, -0.039039, -0.059109, 0.027219, -0.106869, -0.057023, -0.049796, -0.157260, 0.051278, 0.028111, 0.229812, 0.218582, -0.064730, -0.045370, -0.167434, -0.255024, -0.004266, -0.161333, -0.200581, -0.070923, 0.175692, -0.127474, -0.246450, -0.128577, -0.091628, 0.128692, -0.035121, -0.101547, 0.160973, -0.173817, -0.133595, -0.068146, -0.070872, 0.106073, 0.110758, 0.095376, 0.066149, 0.037969},
    {-0.150888, 0.017566, 0.047841, 0.014698, -0.087439, -0.114143, 0.080538, 0.019318, -0.040084, 0.133884, 0.006100, -0.027081, 0.055793, -0.070156, 0.318734, -0.117225, -0.053390, 0.206525, 0.056647, 0.032856, -0.007770, -0.103077, -0.185941, -0.167815, 0.077811, -0.080948, -0.098962, 0.172020, -0.047875, 0.146248, -0.066459, -0.032606, 0.138556, 0.019807, -0.190497, 0.068906, 0.046698, -0.093819, -0.030636, 0.086224, -0.049589, -0.019272, -0.094101, 0.005897, 0.230026, 0.032279, 0.016567, -0.013426, 0.275970, 0.159653, 0.030492, 0.138725, -0.060498, 0.052624, 0.137055, -0.030596, -0.012858, 0.006202, -0.078074, -0.200193, 0.081967, 0.105016, -0.037186, -0.034659, 0.156062, -0.059850, 0.082217, -0.046948, 0.225176, 0.056059, -0.032194, -0.159067, -0.200350, -0.077481, 0.023627, 0.127120, 0.082709, -0.021060, 0.049945, 0.107784, -0.088215, 0.007083, 0.129937, 0.111611, 0.023718, -0.029978, 0.033438, -0.026602, -0.013900, -0.016427, 0.139734, -0.059685, -0.128563, 0.090645, 0.022019, 0.153775, 0.015243, 0.055206, 0.321871, 0.158581, 0.131500, -0.017542, -0.011209, 0.218840, -0.089913, -0.083352, 0.001017, 0.086572, -0.025037, 0.160521, 0.046412, 0.099417, -0.040583, -0.195707, 0.074144, 0.159649, 0.055953, 0.196936, 0.084309, 0.130828, 0.087224, 0.048992, -0.051386, -0.204361, -0.029618, 0.017536, -0.104824, -0.126156},
    {0.033566, -0.186237, 0.103039, -0.037560, 0.036202, 0.252368, -0.097210, 0.103134, -0.106470, 0.136089, -0.030550, 0.033018, 0.106878, -0.166598, -0.005709, -0.004899, -0.020865, -0.012315, -0.146708, -0.092333, 0.004199, -0.133692, 0.255631, -0.079450, -0.025350, 0.144781, -0.072712, 0.137063, -0.099790, 0.089793, 0.168164, 0.085773, 0.087134, -0.092215, -0.094462, 0.009119, 0.077596, -0.116017, 0.075053, 0.260057, -0.097041, 0.038179, -0.245297, -0.068791, -0.143419, -0.131847, -0.081072, -0.021608, -0.000004, 0.212438, -0.065206, 0.133017, -0.037238, 0.096213, 0.008405, 0.052642, -0.134996, -0.114460, -0.055994, 0.047291, -0.075825, 0.032072, -0.057209, 0.072608, -0.255969, 0.165692, 0.003832, 0.231962, 0.102939, 0.107932, 0.180039, -0.141223, -0.051204, 0.084426, 0.045320, -0.074379, 0.098714, 0.047298, 0.169144, -0.043250, -0.081620, -0.226007, 0.082290, -0.046954, 0.071036, 0.105893, -0.133749, 0.028775, 0.177609, -0.192477, -0.185496, 0.001730, -0.196598, -0.162109, -0.162748, -0.003075, 0.001557, -0.013692, 0.096635, -0.215413, 0.143068, -0.112715, -0.117012, -0.054831, 0.036565, -0.084787, -0.114150, -0.146038, 0.156003, 0.115060, 0.040313, -0.068347, 0.059367, 0.104985, 0.072400, 0.015531, -0.118749, -0.003415, -0.005414, 0.138956, 0.033359, -0.007482, -0.003263, 0.030670, -0.091792, -0.083986, 0.194704, -0.120699},
    {-0.007865, 0.170751, 0.033124, 0.156594, 0.029579, 0.140864, 0.080158, 0.044758, -0.013726, 0.025084, 0.122126, 0.037811, -0.093424, 0.037356, -0.157856, 0.115151, -0.017860, 0.028440, 0.074185, -0.047309, 0.086228, 0.026048, -0.032398, -0.066237, -0.002771, 0.011871, 0.033972, -0.164617, -0.085656, -0.116576, -0.035493, 0.014765, -0.122359, -0.052208, -0.130601, -0.186242, 0.046638, 0.020889, 0.072047, 0.015950, -0.014723, 0.076724, 0.058958, -0.109206, 0.074556, 0.047982, 0.106016, -0.157099, 0.006442, -0.115132, -0.007192, -0.041987, 0.184841, 0.126507, -0.099724, -0.018009, -0.096217, 0.017281, 0.081023, 0.181829, -0.249311, -0.136569, -0.079541, -0.094392, -0.017572, -0.063107, 0.013536, 0.054825, 0.122946, 0.109124, 0.001727, 0.027155, -0.087059, 0.065006, -0.216567, -0.006225, 0.012397, -0.070224, -0.167756, 0.062206, 0.083232, 0.102084, 0.082479, -0.071570, -0.044992, -0.116474, 0.056003, 0.089813, -0.102954, 0.170143, -0.152852, 0.006142, 0.134386, 0.138796, 0.053052, 0.056535, -0.108097, 0.069117, -0.123712, 0.082198, 0.096482, -0.208256, -0.265918, -0.255454, 0.073013, 0.079014, -0.073960, 0.032092, -0.051763, -0.064507, -0.022222, 0.023804, -0.038145, 0.022825, 0.108803, -0.097850, -0.068307, -0.182595, -0.126015, -0.207650, 0.162706, 0.132890, -0.108299, 0.295154, 0.217793, 0.043911, -0.213183, 0.041875},
    {-0.111740, -0.002426, 0.114706, -0.031071, -0.030072, -0.063708, 0.074538, 0.036371, -0.000627, 0.011349, 0.063056, 0.083072, -0.069139, -0.056724, -0.013713, -0.115674, 0.049900, 0.021012, -0.034476, -0.085082, -0.036738, 0.102910, 0.020603, -0.060566, -0.183719, -0.086594, 0.117309, 0.119575, -0.030586, 0.111638, 0.142886, -0.019125, 0.143862, -0.211563, -0.133378, 0.349089, -0.142040, -0.073335, 0.049008, -0.051734, 0.045957, 0.151273, 0.028041, 0.141657, 0.082841, -0.082819, -0.225084, 0.086135, -0.033308, 0.053797, -0.107491, 0.012267, 0.121859, 0.111003, 0.167233, -0.224610, -0.067885, 0.072710, 0.027104, 0.069330, 0.154645, -0.020969, 0.029003, 0.002211, 0.039863, -0.101192, 0.056598, 0.045558, 0.065021, 0.001782, 0.165062, 0.002248, -0.111992, -0.167691, -0.088465, 0.055864, 0.076414, 0.082140, -0.180533, 0.043517, 0.011787, -0.164867, 0.040524, -0.190406, 0.126890, 0.000102, 0.109662, -0.105582, -0.073321, 0.014200, 0.017733, 0.000099, -0.041979, -0.038756, 0.020908, -0.099443, -0.020919, 0.059591, 0.042800, -0.165656, -0.045961, 0.101834, 0.154703, 0.051661, 0.243339, 0.058637, 0.013888, 0.015166, -0.026266, -0.074739, -0.185157, -0.019676, 0.240929, 0.005457, -0.068753, 0.099113, -0.054443, -0.063071, -0.029680, -0.120002, -0.015082, -0.009202, -0.036399, -0.073209, -0.026938, 0.030638, -0.039541, 0.178165},
    {-0.043278, 0.161753, 0.111103, 0.192184, -0.112611, 0.072724, 0.009130, -0.057399, 0.010773, 0.112719, 0.145674, -0.079918, 0.131139, 0.223873, 0.162761, -0.066399, -0.003697, 0.066350, -0.037788, 0.058849, -0.057288, 0.037276, -0.009291, 0.011186, 0.030138, 0.009840, 0.124390, 0.021927, -0.031805, 0.144240, -0.080989, -0.102931, -0.357873, -0.074515, 0.113321, -0.071368, 0.208455, -0.054884, 0.073908, -0.129179, -0.092059, -0.010359, 0.111906, 0.086642, -0.147259, 0.001983, -0.001648, -0.009776, 0.202303, 0.105791, -0.027672, 0.133623, -0.117098, 0.046692, -0.010272, 0.013706, 0.025328, -0.093548, -0.004727, -0.091822, 0.019339, 0.030013, 0.117180, -0.114127, -0.026598, 0.200102, -0.117094, -0.020163, 0.012221, 0.106745, 0.015923, 0.134923, -0.090441, -0.218962, -0.032849, 0.063568, -0.016234, 0.160254, -0.074800, 0.139545, 0.228537, -0.115771, 0.177745, 0.043836, 0.010655, 0.015105, -0.181120, -0.079600, 0.098297, 0.083937, 0.145599, -0.067776, 0.057842, -0.064562, 0.079801, -0.125511, 0.156525, 0.142820, 0.036923, -0.123393, 0.136063, 0.069109, 0.175451, 0.122369, -0.009477, 0.137748, 0.005531, -0.015831, 0.052287, 0.149911, 0.113207, -0.125394, 0.105131, -0.101441, -0.042717, -0.046076, -0.041386, 0.021242, 0.027406, 0.033354, 0.179579, -0.031064, -0.061738, 0.041281, -0.000597, 0.143860, 0.018929, -0.025514},
    {0.054957, 0.045255, -0.025046, 0.083334, 0.094931, 0.007590, -0.177642, 0.059584, -0.035488, -0.084325, 0.021114, 0.219179, -0.067230, -0.250677, 0.116712, -0.137396, 0.200022, -0.120547, 0.043502, 0.040919, -0.120710, 0.060389, -0.061376, -0.129336, 0.035246, -0.138973, -0.264938, -0.060928, -0.154634, 0.044246, -0.074994, 0.187472, -0.053775, 0.043992, 0.074612, -0.022029, 0.180468, 0.027430, -0.003284, 0.089469, -0.051604, 0.000708, -0.061574, 0.128763, 0.059964, 0.188811, -0.171649, 0.212821, -0.108667, 0.062584, 0.022111, 0.066324, 0.090778, -0.050100, 0.066647, 0.166371, 0.082573, -0.020007, 0.118768, -0.225624, -0.077693, 0.068679, -0.265231, -0.085038, -0.002649, -0.104324, -0.025583, 0.017344, 0.010530, 0.084810, 0.055773, 0.017103, -0.016775, 0.055646, 0.129971, -0.002782, 0.031713, 0.169455, -0.001932, -0.190979, -0.063249, -0.005199, -0.138009, -0.091718, -0.035880, 0.078521, -0.075695, -0.079287, 0.206300, 0.032253, -0.081626, -0.069864, -0.082538, -0.062619, 0.091911, 0.138251, 0.016363, 0.172700, -0.131030, 0.073895, 0.014082, -0.136068, -0.031285, 0.144416, 0.021687, -0.028922, 0.106871, -0.022115, 0.069326, -0.010567, -0.045046, -0.031138, -0.097395, -0.012111, 0.079071, -0.169093, -0.016660, -0.048668, -0.067728, -0.099697, -0.317374, -0.058044, 0.327115, 0.059013, 0.176841, -0.022505, 0.198403, -0.011139},
    {0.046932, -0.162275, 0.082614, 0.018913, -0.077449, 0.034709, 0.132958, 0.189091, 0.129420, 0.105172, 0.075757, 0.068030, 0.084208, -0.044665, -0.078083, -0.004335, 0.192293, -0.044608, -0.010284, -0.072003, -0.056726, -0.214743, 0.094247, 0.058557, 0.051777, 0.087133, -0.050102, -0.033404, -0.176900, -0.003048, -0.129290, -0.041001, -0.101406, -0.184794, 0.023811, 0.096263, 0.008737, -0.142695, -0.214226, 0.170868, 0.038188, -0.111601, -0.026873, -0.091336, 0.079369, 0.020872, 0.004514, -0.037232, -0.149621, -0.008845, -0.077965, -0.049800, -0.043496, -0.166405, 0.016428, -0.212656, 0.148939, -0.090533, 0.031177, -0.089281, 0.132310, 0.048329, -0.040198, -0.028109, -0.016113, 0.030645, 0.051546, 0.087689, 0.027427, 0.178469, -0.012022, -0.135472, 0.031169, 0.115233, -0.025438, -0.191330, -0.056878, -0.112083, 0.060811, -0.022707, 0.130347, -0.104653, -0.006520, -0.087501, -0.051084, 0.145244, 0.044444, 0.126799, -0.198572, 0.057923, 0.004076, -0.152846, 0.195793, 0.171351, 0.010060, 0.065402, 0.121887, 0.031631, -0.130079, 0.098905, 0.161842, 0.076746, 0.004075, 0.040504, 0.187020, -0.050082, -0.106712, -0.005242, 0.105047, -0.105677, 0.131252, -0.042099, -0.011923, -0.081337, 0.084125, -0.034328, 0.063060, 0.067054, 0.026530, -0.018400, -0.065027, -0.145998, -0.057378, -0.080827, 0.033961, -0.099002, 0.039520, -0.220414},
    {-0.061411, -0.184131, -0.054978, -0.247891, -0.043476, -0.273509, 0.019755, 0.038646, 0.113776, -0.068981, 0.175025, -0.002691, -0.159588, 0.009181, -0.096875, -0.207213, 0.068703, 0.105425, 0.017763, -0.007109, 0.169974, -0.070426, -0.027194, 0.257346, -0.184389, 0.156218, -0.005641, -0.132979, 0.205032, -0.075192, 0.009339, -0.092682, -0.033668, -0.010909, -0.007722, 0.105985, 0.107877, -0.059069, -0.095117, 0.003837, -0.080155, -0.005162, 0.118985, -0.060022, -0.044400, 0.028246, -0.060683, 0.192974, -0.264453, -0.005372, -0.221916, 0.091124, -0.096458, 0.073264, -0.067227, 0.041615, -0.092184, -0.033911, 0.129834, 0.104245, -0.116869, -0.091788, 0.133004, -0.047524, 0.007863, -0.074890, 0.005184, 0.139670, 0.071537, -0.014254, 0.046702, 0.006123, 0.132712, -0.100782, 0.078036, 0.082378, 0.003552, -0.013797, -0.102118, 0.052113, 0.163055, -0.084699, 0.106248, -0.044020, -0.139557, -0.288581, -0.047828, 0.098521, -0.170744, 0.129059, -0.177896, -0.123158, 0.096974, -0.072997, 0.127218, -0.011988, -0.133937, -0.011746, 0.286723, 0.044366, -0.107467, -0.086923, 0.151046, -0.097132, 0.049989, 0.000235, 0.056928, 0.071597, 0.050033, -0.071175, 0.164078, 0.049315, -0.100629, -0.023879, 0.115121, -0.130224, -0.051289, 0.092694, -0.029279, -0.130279, -0.122726, -0.044947, -0.028376, -0.022224, 0.014411, 0.030271, -0.111489, 0.132379},
};

float layer1_bias[64] = {0.064112, -0.028981, 0.117129, 0.104622, -0.020169, 0.060456, 0.104432, 0.114147, 0.198244, -0.003609, 0.167580, 0.173508, 0.028424, -0.033526, -0.037393, 0.092925, 0.054592, 0.280957, -0.010313, 0.178187, 0.050330, -0.113117, 0.043385, 0.099390, 0.036911, 0.037709, 0.048685, -0.043015, -0.037068, 0.125005, 0.048449, -0.123427, 0.046983, 0.287751, -0.042931, -0.083446, 0.190248, 0.148959, 0.158846, -0.019799, -0.027090, -0.008082, 0.105654, 0.148500, -0.022431, 0.084904, 0.127987, 0.091044, 0.007838, -0.001560, 0.262387, 0.059159, -0.113390, 0.013366, 0.135159, -0.038476, 0.249556, 0.093059, -0.020742, 0.009205, -0.062432, 0.046173, -0.055682, 0.171454};

float layer2_weights[10][64] = {
    {-0.081614, 0.102925, 0.004842, -0.244594, -0.443203, -0.296391, -0.128380, 0.212875, -0.263649, -0.279202, 0.111418, -0.740447, 0.342748, -0.100685, 0.291712, 0.301862, 0.129764, 0.172922, 0.003650, 0.057145, 0.283019, -0.086953, 0.264060, 0.358016, 0.058922, -0.125160, -0.495019, -0.281507, -0.551884, -0.210849, -0.440142, -0.001015, -0.422135, 0.069110, -0.123717, 0.192103, -0.350202, -0.078636, -0.613714, 0.045311, 0.397705, -0.226715, 0.348764, -0.152454, 0.229885, 0.094228, -0.248369, -0.251029, -0.065876, -0.270027, -0.134593, -0.130470, 0.241100, 0.230580, 0.234428, 0.085890, 0.055219, 0.100656, 0.108276, -0.169606, -0.248655, 0.204519, 0.196596, 0.020252},
    {0.246142, -0.170334, -0.361915, 0.045845, 0.269464, 0.006168, -0.502111, 0.258424, -0.007145, 0.304296, 0.319085, -0.075356, 0.148661, 0.114210, -0.023225, -0.318649, -0.484483, -0.551648, -0.205669, -0.179871, -0.133615, 0.328715, 0.411701, 0.105200, -0.197583, -0.241117, 0.176317, 0.003703, -0.337572, -0.083973, -0.292473, 0.145749, 0.377660, -0.366585, 0.329113, -0.117741, 0.040703, -0.114921, -0.412660, -0.255183, 0.025510, -0.186774, -0.160348, 0.308085, -0.014039, -0.127653, 0.290936, -0.161648, -0.333226, 0.162156, -0.032834, 0.041156, -0.196341, -0.054285, -0.636341, -0.177726, 0.198134, 0.249897, 0.309352, 0.170462, 0.156040, -0.267188, -0.085129, 0.280792},
    {-0.080250, 0.120504, 0.354367, 0.119429, -0.024562, 0.306713, -0.127038, 0.005887, -0.145426, 0.377858, 0.152471, -0.313687, 0.304695, 0.062698, -0.071716, -0.396902, 0.233714, 0.176258, 0.173695, 0.114783, -0.150036, -0.423878, -0.274001, -0.210095, 0.142940, 0.037134, 0.098006, -0.535316, 0.302667, -0.131606, 0.030865, -0.266578, -0.474965, 0.270358, -0.083628, -0.072581, -0.045527, 0.110646, 0.237549, 0.390429, -0.430949, -0.133191, -0.207929, 0.207900, -0.254125, 0.139689, 0.156709, 0.342019, -0.157255, 0.007626, 0.242205, -0.354570, 0.068637, 0.071381, 0.054632, -0.720642, 0.308437, -0.639003, -0.431983, -0.248586, -0.060825, -0.018941, 0.033582, -0.551682},
    {-0.214950, -0.440552, 0.241976, 0.121182, 0.387045, -0.174578, 0.330585, -0.257899, -0.148142, -0.219908, 0.050926, 0.120922, -0.069512, 0.255282, -0.361975, -0.036472, -0.037656, 0.098409, -0.362901, -0.334068, -0.050332, -0.187127, -0.542343, -0.266252, 0.394562, 0.313389, -0.292599, 0.308365, 0.151148, 0.223595, -0.361291, -0.059375, -0.183026, -0.086882, -0.148163, 0.153871, -0.325126, -0.129851, -0.407118, -0.012276, 0.098497, 0.211494, -0.328030, 0.191906, -0.292230, 0.352427, -0.126366, 0.073070, 0.101686, 0.054553, 0.428635, 0.067730, -0.274227, -0.512096, 0.038597, 0.022129, 0.199339, -0.039720, 0.148081, -0.214923, -0.077601, 0.390190, 0.181813, -0.098487},
    {-0.610595, 0.024148, 0.296187, -0.173732, 0.188420, 0.313294, 0.013629, -0.244942, 0.339555, -0.002420, 0.043265, 0.127884, -0.597945, -0.538337, -0.144605, 0.080480, -0.359231, -0.016174, -0.000223, 0.287547, 0.222422, 0.199562, -0.417607, 0.257322, -0.190977, 0.207905, -0.024780, 0.275901, -0.028127, 0.084071, 0.293310, -0.024500, 0.249013, 0.066266, 0.234889, -0.415403, -0.372193, -0.785346, 0.179238, 0.022197, 0.037528, -0.260128, -0.021844, -0.128562, 0.168865, 0.029383, 0.163772, -0.386485, 0.307284, 0.238330, -0.022153, 0.012528, 0.261517, 0.080254, 0.099984, 0.130790, -0.249425, -0.213445, -0.333779, -0.021092, -0.298589, -0.326432, 0.184850, -0.075940},
    {-0.012279, -0.106916, -0.060253, -0.320074, 0.060666, 0.219300, -0.180957, 0.161471, 0.262196, -0.267487, -0.438393, 0.148154, -0.403812, -0.170588, -0.612794, 0.252535, 0.149739, -0.224303, 0.298595, 0.339331, 0.306559, -0.487985, -0.044476, -0.387873, 0.272248, -0.130001, 0.022118, 0.156104, 0.192452, 0.086719, 0.164270, -0.176215, 0.145443, -0.618457, -0.141088, 0.265998, 0.221075, 0.343964, -0.180856, -0.660972, 0.237802, 0.275285, 0.182297, -0.468400, -0.421256, -0.051690, -0.037898, 0.150260, -0.376752, -0.477192, -0.185140, 0.156464, -0.456392, 0.202964, -0.133602, 0.061571, 0.228433, 0.064629, 0.084892, -0.099062, 0.337857, -0.433074, -0.392780, -0.054724},
    {0.117848, 0.301607, -0.433165, -0.389866, -0.345476, -0.230973, 0.075574, -0.653084, 0.275027, 0.245669, -0.087117, -0.239081, -0.111240, 0.194321, 0.212005, -0.125445, -0.101982, 0.166855, -0.301182, -0.185730, -0.331190, 0.047731, 0.155721, -0.116555, 0.034918, -0.318915, 0.296486, -0.249593, -0.120114, -0.350494, -0.075493, -0.275307, 0.070911, 0.029271, -0.139025, -0.441112, 0.123075, 0.029994, 0.131294, -0.052261, -0.379016, 0.237670, 0.270298, 0.032822, -0.233955, -0.443686, -0.107318, 0.234009, 0.167581, 0.258231, 0.077067, 0.209619, 0.307033, -0.277881, 0.243432, 0.194506, -0.060492, 0.394352, -0.460337, 0.275427, 0.098200, 0.095441, -0.029056, 0.258403},
    {0.178286, -0.463654, 0.028854, 0.222616, -0.177635, -0.018275, 0.036723, -0.072780, -0.355801, -0.135411, 0.164330, 0.251366, -0.161622, 0.169392, 0.109235, -0.189754, -0.060587, 0.269608, 0.139242, -0.073715, -0.332703, -0.083653, 0.141266, -0.147949, -0.484699, 0.087003, -0.348640, -0.175923, 0.029212, 0.304673, -0.055853, 0.520730, 0.132326, 0.083542, 0.288742, 0.227248, -0.001146, -0.012115, 0.103025, 0.016748, -0.219532, 0.215002, -0.030588, -0.541036, 0.308853, -0.035736, -0.386314, 0.147992, -0.184986, -0.028306, -0.608191, 0.401266, 0.272714, 0.124869, 0.049916, -0.413610, -0.200609, -0.001769, 0.180593, -0.249299, 0.267690, -0.235203, -0.379851, -0.327912},
    {0.243135, 0.234489, 0.212537, 0.423293, -0.098906, -0.357098, 0.242548, 0.343112, -0.154583, -0.438950, -0.305312, 0.087822, 0.340705, -0.387607, -0.386141, 0.065580, 0.287098, -0.343493, 0.089579, 0.065257, -0.420613, 0.193525, -0.093875, -0.147609, 0.047323, 0.039750, 0.138039, 0.198673, 0.125497, -0.643626, 0.297996, -0.305302, -0.158278, 0.004553, -0.308321, -0.304235, 0.281159, 0.039518, 0.046975, 0.201500, -0.269928, 0.020532, -0.272365, -0.143700, -0.048082, 0.303606, -0.336215, 0.201520, -0.325114, 0.187356, -0.061824, -0.182008, -0.092100, -0.122854, 0.021829, 0.413651, -0.019078, -0.135754, 0.077905, 0.317902, -0.442941, -0.199938, 0.306530, 0.117456},
    {-0.069609, -0.199846, -0.559251, 0.170891, -0.085588, -0.296807, 0.275428, -0.170084, -0.065095, 0.093055, -0.353679, 0.333003, -0.184192, -0.288618, 0.360403, 0.012525, -0.020515, 0.318274, -0.325083, -0.407089, 0.089194, -0.067109, -0.102473, -0.099840, -0.248236, -0.462523, 0.291948, -0.118140, 0.328477, 0.143626, 0.099981, -0.236031, -0.066396, 0.045761, -0.511039, 0.350447, 0.200216, 0.093375, 0.330086, 0.019791, 0.336697, -0.382794, -0.081417, 0.140719, 0.205397, -0.391813, 0.432257, -0.280392, 0.330974, -0.476165, 0.001750, -0.437480, -0.435341, -0.446308, 0.202048, -0.490543, -0.443223, -0.205723, 0.018523, -0.282023, -0.080749, 0.343380, -0.238935, 0.128712},
};

float layer2_bias[10] = {0.048500, -0.070823, -0.041517, 0.114972, -0.119884, 0.027545, -0.061017, -0.162907, -0.152662, 0.060870};

#endif
